0.00596669	-0.0230111	-0.0130014	-0.0267448	0.023634	0.0335758	0.0118674	0.000150632	-1.06171e-06	0.00204847	0.0485579	-0.0458638	-0.0294643	0.0379608	-0.00283264	-0.0425445	-0.005955	-0.043515	-0.0223524	0.024929	0.00300667	0.00985403	0.0293318	-0.0494107	0.01016	0.0473371	0.0127685	-0.0464156	-0.0135085	0.0193821	0.0347317	-0.0249577
-0.400778	0.37951	0.384984	0.419986	-0.486374	-0.365612	-0.394862	0.374517	-0.338727	-0.331822	-0.373025	-0.44243	-0.425334	-0.443813	0.429902	0.427798	-0.437198	0.360052	0.155779	-0.348283	0.415886	0.398175	0.477597	0.335722	0.456626	-0.393284	0.399634	0.394539	0.439308	-0.378669	0.392286	-0.42167
-0.442335	0.477264	0.431275	0.404004	-0.184115	-0.2891	-0.433691	0.350669	-0.465658	-0.429798	-0.371137	-0.457717	-0.4622	-0.483272	0.45268	0.467858	-0.411108	0.422794	0.172346	-0.331194	0.353363	0.359651	0.362837	0.412186	0.372113	-0.461141	0.370956	0.274247	0.376966	-0.437608	0.467506	-0.424847
-0.368444	0.441079	0.388465	0.377032	-0.363944	-0.348004	-0.317372	0.445662	-0.341867	-0.36405	-0.431465	-0.446326	-0.364255	-0.465154	0.427463	0.430364	-0.429408	0.272091	0.440441	-0.181751	0.389061	0.457511	0.369307	0.435697	0.460178	-0.33289	0.355075	0.456903	0.412142	-0.40921	0.363025	-0.343898
-0.318563	0.317118	0.403227	0.383565	-0.441681	-0.370741	-0.360977	0.416959	-0.465767	-0.285867	-0.390212	-0.35619	-0.378412	-0.447223	0.430469	0.359847	-0.430994	0.409076	0.319753	-0.443616	0.399963	0.383716	0.407355	0.361777	0.400094	-0.409084	0.471934	0.337501	0.353467	-0.454448	0.345926	-0.426149
-0.260834	0.263831	0.392521	0.385681	-0.325885	-0.353184	-0.280931	0.323203	-0.409223	-0.390811	-0.31625	-0.330891	-0.294677	-0.404532	0.315415	0.305949	-0.399971	0.414022	0.248784	-0.293922	0.278722	0.306735	0.364682	0.395599	0.327232	-0.281255	0.309669	0.368187	0.389494	-0.365735	0.323168	-0.322103
-0.312699	0.354934	0.288966	0.340199	-0.285316	-0.335807	-0.359279	0.347893	-0.417339	-0.321881	-0.410333	-0.407509	-0.390846	-0.398402	0.346819	0.333997	-0.425916	0.420443	0.459465	-0.268932	0.398593	0.428865	0.394307	0.351264	0.413765	-0.28132	0.376754	0.422995	0.41867	-0.396804	0.402638	-0.344803
-0.289587	0.371328	0.434499	0.442131	-0.422477	-0.437424	-0.423269	0.41852	-0.44971	-0.222006	-0.380342	-0.360851	-0.382253	-0.452106	0.432362	0.428706	-0.356629	0.293113	0.35897	-0.301866	0.42007	0.474587	0.458458	0.359864	0.318008	-0.421076	0.432549	0.395988	0.445959	-0.364924	0.452068	-0.335803
-0.45164	0.4016	0.432916	0.432858	-0.327421	-0.437648	-0.451545	0.402077	-0.43051	-0.365499	-0.343841	-0.345349	-0.435181	-0.401343	0.336853	0.379241	-0.385238	0.434074	0.174761	-0.511888	0.393349	0.33327	0.393833	0.458591	0.355223	-0.405768	0.345768	0.371511	0.41166	-0.422275	0.355592	-0.447639
-0.472325	0.326051	0.461712	0.40337	-0.418864	-0.467746	-0.24645	0.400396	-0.358638	-0.259065	-0.42133	-0.334727	-0.381284	-0.304986	0.386502	0.348575	-0.450037	0.393123	0.642658	-0.564316	0.3396	0.361	0.356156	0.392458	0.396575	-0.432268	0.441379	0.202732	0.337767	-0.352213	0.42757	-0.44106
-0.45235	0.292646	0.4393	0.410664	-0.442778	-0.461784	-0.312874	0.358624	-0.346298	-0.456596	-0.413132	-0.403869	-0.43544	-0.296794	0.326641	0.418973	-0.426129	0.440374	0.477956	-0.479807	0.306833	0.46137	0.344426	0.418985	0.369264	-0.364845	0.418515	0.418278	0.384754	-0.372564	0.221596	-0.442093
-0.346313	0.356199	0.37286	0.335527	-0.361172	-0.443673	-0.214448	0.36398	-0.36686	-0.486681	-0.420481	-0.318497	-0.388911	-0.307745	0.293419	0.371163	-0.399094	0.452192	0.444986	-0.352454	0.29057	0.419464	0.317804	0.383036	0.447267	-0.288428	0.334252	0.397184	0.324349	-0.309605	0.32842	-0.367102
-0.405773	0.379382	0.438435	0.408672	-0.375682	-0.317848	-0.382115	0.34528	-0.427718	-0.368999	-0.393757	-0.403882	-0.427471	-0.404352	0.383574	0.419534	-0.362011	0.433398	0.373903	-0.460151	0.3091	0.263817	0.378072	0.44745	0.304345	-0.383641	0.38098	0.338974	0.28751	-0.302009	0.455548	-0.337682
-0.44116	0.321368	0.361234	0.390514	-0.378836	-0.322738	-0.431229	0.395882	-0.402864	-0.232811	-0.412045	-0.420352	-0.377032	-0.336962	0.433898	0.310261	-0.412954	0.499465	0.634648	-0.240823	0.408693	0.246998	0.465539	0.357215	0.318601	-0.435317	0.361532	0.356473	0.469703	-0.316095	0.484187	-0.409554
-0.417015	0.296504	0.434202	0.390317	-0.36699	-0.374833	-0.355144	0.454869	-0.366855	-0.285624	-0.372952	-0.429728	-0.374729	-0.362647	0.397023	0.443289	-0.416729	0.389881	0.517344	-0.532731	0.454656	0.302802	0.41571	0.425877	0.456526	-0.451415	0.438451	0.420347	0.391377	-0.444241	0.465413	-0.428953
-0.474482	0.457934	0.4811	0.353886	-0.367921	-0.457142	-0.44319	0.347168	-0.387433	-0.207842	-0.436281	-0.409219	-0.459726	-0.400274	0.448424	0.433717	-0.355568	0.437667	0.242804	-0.43404	0.4407	0.285678	0.38994	0.435358	0.340066	-0.417648	0.452698	0.277309	0.395939	-0.407766	0.306667	-0.486831
-0.311528	0.341009	0.411104	0.438133	-0.3562	-0.371042	-0.392388	0.361426	-0.453617	-0.350107	-0.407948	-0.363969	-0.36515	-0.425475	0.407154	0.356872	-0.351588	0.437025	0.204334	-0.419341	0.403432	0.450712	0.431454	0.428153	0.359916	-0.423489	0.385586	0.41883	0.380275	-0.450981	0.442141	-0.404795
-0.363329	0.415412	0.350266	0.380596	-0.412121	-0.407091	-0.341438	0.43117	-0.418633	-0.364702	-0.337477	-0.338537	-0.389616	-0.354608	0.350275	0.355676	-0.344426	0.468236	0.381905	-0.329674	0.36846	0.416167	0.34897	0.391063	0.400009	-0.321102	0.394578	0.34077	0.35998	-0.403947	0.355685	-0.432241
-0.481242	0.391349	0.375688	0.411322	-0.362328	-0.430001	-0.324071	0.439147	-0.433977	-0.328487	-0.359348	-0.449801	-0.367693	-0.416584	0.339164	0.357629	-0.411475	0.481231	0.190127	-0.516033	0.348062	0.401647	0.333631	0.450393	0.380987	-0.414882	0.469868	0.43262	0.378642	-0.420813	0.384894	-0.391397
-0.329317	0.398682	0.407076	0.375906	-0.35179	-0.283184	-0.307198	0.449407	-0.317554	-0.173567	-0.366842	-0.385822	-0.35035	-0.413102	0.439613	0.325074	-0.407831	0.421554	0.475841	-0.37622	0.297745	0.435343	0.430585	0.442482	0.376476	-0.251727	0.419951	0.32043	0.40638	-0.322613	0.426328	-0.410858
-0.376459	0.432103	0.451498	0.348988	-0.404323	-0.34374	-0.400958	0.412529	-0.40513	-0.258615	-0.418685	-0.437216	-0.449471	-0.458552	0.343483	0.393686	-0.453409	0.36145	0.123453	-0.523443	0.445947	0.379231	0.444716	0.433241	0.345901	-0.373808	0.44297	0.365375	0.477294	-0.433744	0.364586	-0.403056
-0.314764	0.398276	0.383365	0.415576	-0.43041	-0.351052	-0.370681	0.351427	-0.354441	-0.437288	-0.396832	-0.323793	-0.411483	-0.327139	0.409097	0.370382	-0.427921	0.442824	0.219994	-0.412242	0.386353	0.31664	0.342352	0.385197	0.379344	-0.326464	0.367044	0.383333	0.353619	-0.384507	0.345561	-0.423241
-0.41326	0.40224	0.384369	0.339384	-0.31299	-0.320213	-0.296297	0.293983	-0.253899	-0.408724	-0.340274	-0.434256	-0.301773	-0.297656	0.306647	0.382764	-0.275039	0.287851	0.333317	-0.0539183	0.239736	0.373035	0.403309	0.284462	0.410833	-0.379957	0.383157	0.388938	0.273316	-0.322765	0.25254	-0.369627
-0.480385	0.4877	0.39444	0.424902	-0.501191	-0.483182	-0.412452	0.478749	-0.410792	-0.23933	-0.487861	-0.460142	-0.496668	-0.461658	0.457989	0.480147	-0.4671	0.414824	0.233327	-0.396086	0.500592	0.388554	0.408655	0.382293	0.386395	-0.486732	0.469673	0.27938	0.446216	-0.486438	0.477256	-0.484923
-0.402278	0.376986	0.423839	0.374065	-0.344207	-0.374687	-0.379449	0.392194	-0.415237	-0.288154	-0.458777	-0.40849	-0.39287	-0.48415	0.413153	0.410341	-0.404014	0.290854	0.308764	-0.350359	0.436898	0.394835	0.436985	0.40815	0.44915	-0.48009	0.365946	0.334859	0.386262	-0.381624	0.474212	-0.439949
-0.320583	0.368841	0.327226	0.421613	-0.502663	-0.384593	-0.380944	0.328804	-0.39813	-0.174708	-0.333782	-0.350953	-0.433719	-0.388059	0.322335	0.411955	-0.424649	0.431253	0.243003	-0.427549	0.457156	0.330429	0.412195	0.344418	0.328162	-0.450771	0.459355	0.365647	0.440805	-0.47115	0.4076	-0.385612
-0.382784	0.340023	0.356713	0.268757	-0.325875	-0.391878	-0.275536	0.263137	-0.347119	-0.471047	-0.310893	-0.394819	-0.36335	-0.237903	0.293241	0.308708	-0.253746	0.381197	0.36078	-0.256215	0.316097	0.349101	0.260169	0.399611	0.427485	-0.279942	0.408376	0.46747	0.265479	-0.288123	0.212976	-0.322277
-0.41095	0.419327	0.447965	0.364342	-0.402606	-0.377689	-0.513248	0.422822	-0.484082	-0.250286	-0.469876	-0.461571	-0.38709	-0.411262	0.442109	0.411778	-0.36832	0.322829	0.418982	-0.525683	0.468661	0.318896	0.407926	0.449842	0.446206	-0.477498	0.4599	0.420655	0.369025	-0.476551	0.485761	-0.40708
-0.388862	0.42623	0.389664	0.430131	-0.439988	-0.468194	-0.456114	0.414029	-0.448416	-0.410513	-0.433368	-0.433535	-0.459762	-0.419625	0.376543	0.440815	-0.424268	0.35926	0.191994	-0.461633	0.448035	0.297186	0.421944	0.374819	0.353285	-0.403058	0.463605	0.391172	0.399133	-0.467907	0.440041	-0.432335
-0.326551	0.364185	0.41407	0.402731	-0.40535	-0.407076	-0.406023	0.411346	-0.341744	-0.379204	-0.367216	-0.343814	-0.358253	-0.442773	0.357603	0.385814	-0.40413	0.262316	0.390029	-0.206418	0.378764	0.325493	0.396924	0.387235	0.43725	-0.435251	0.42143	0.276148	0.39166	-0.41962	0.4183	-0.427978
-0.541635	0.42893	0.425022	0.372739	-0.384778	-0.343168	-0.484132	0.373211	-0.491743	-0.4179	-0.43314	-0.411675	-0.373967	-0.447032	0.408665	0.355739	-0.385868	0.32966	0.547627	-0.548004	0.506762	0.303339	0.449256	0.48516	0.432963	-0.355637	0.507789	0.349618	0.419636	-0.385336	0.423352	-0.48401
-0.389629	0.44739	0.404153	0.471024	-0.390132	-0.45623	-0.497378	0.399764	-0.409561	-0.407501	-0.43979	-0.357135	-0.436066	-0.452587	0.428323	0.367422	-0.407205	0.30116	0.438102	-0.291749	0.384603	0.435613	0.412154	0.430839	0.332069	-0.411015	0.437191	0.415375	0.411063	-0.452447	0.411972	-0.475695
-0.391492	0.481278	0.366767	0.367568	-0.415289	-0.422925	-0.399154	0.457374	-0.428614	-0.469698	-0.400443	-0.423906	-0.497206	-0.465023	0.451753	0.364649	-0.403761	0.356672	0.351985	-0.487602	0.380156	0.306762	0.415872	0.464605	0.391435	-0.428816	0.41013	0.452644	0.334291	-0.430722	0.386704	-0.36716
-0.479365	0.40461	0.35363	0.389512	-0.30654	-0.403147	-0.443292	0.418554	-0.354654	-0.420256	-0.375012	-0.363699	-0.429651	-0.369073	0.433985	0.327799	-0.392129	0.43665	0.261607	-0.399784	0.319172	0.417637	0.402315	0.413895	0.328778	-0.397955	0.394028	0.218377	0.40116	-0.428875	0.376245	-0.386437
-0.401443	0.32977	0.277982	0.418061	-0.325221	-0.392626	-0.39591	0.3287	-0.365066	-0.367774	-0.409951	-0.392897	-0.380328	-0.40646	0.411453	0.399339	-0.363419	0.37924	0.442495	-0.382234	0.388666	0.360492	0.428595	0.336489	0.41558	-0.41722	0.400778	0.347702	0.410798	-0.385847	0.431954	-0.408712
-0.435224	0.492208	0.372315	0.442286	-0.378167	-0.40673	-0.41666	0.349156	-0.37539	-0.426636	-0.401631	-0.354333	-0.483352	-0.367485	0.474198	0.429149	-0.476419	0.494163	0.0500901	-0.47032	0.49267	0.328053	0.447599	0.444486	0.463463	-0.471827	0.427775	0.34423	0.38025	-0.415435	0.370216	-0.487559
-0.407828	0.437128	0.310031	0.472746	-0.260847	-0.437081	-0.455368	0.338265	-0.388788	-0.220807	-0.450206	-0.477614	-0.413658	-0.39772	0.292792	0.319011	-0.328279	0.203362	0.604355	-0.47062	0.476768	0.336101	0.468555	0.362334	0.288018	-0.347162	0.390405	0.327428	0.464479	-0.338214	0.484796	-0.403274
-0.375013	0.268296	0.327963	0.430364	-0.284471	-0.337663	-0.416898	0.363481	-0.322863	-0.352494	-0.449096	-0.428859	-0.407417	-0.333358	0.356297	0.37025	-0.314137	0.244235	0.434822	-0.413029	0.313075	0.341479	0.349263	0.381821	0.416819	-0.300811	0.41319	0.445235	0.436593	-0.409016	0.379266	-0.394135
-0.273736	0.324351	0.364021	0.356849	-0.415011	-0.318129	-0.311315	0.293666	-0.321703	-0.323148	-0.325278	-0.365837	-0.398007	-0.361593	0.295613	0.299113	-0.401481	0.302848	0.249252	-0.300415	0.305264	0.396197	0.275998	0.3632	0.415836	-0.361719	0.39484	0.406576	0.378542	-0.383561	0.294665	-0.387447
-0.492269	0.275878	0.281532	0.279871	-0.204926	-0.266775	-0.229352	0.413449	-0.209464	-0.579596	-0.358351	-0.402019	-0.207946	-0.159715	0.263074	0.380018	-0.202562	0.265602	0.261941	-0.0638675	0.265645	0.266474	0.40961	0.246856	0.412432	-0.221508	0.182869	0.452691	0.120463	-0.119963	0.214775	-0.179139
-0.463127	0.401399	0.45817	0.357837	-0.3661	-0.454144	-0.391877	0.398449	-0.381045	-0.401683	-0.44859	-0.37949	-0.475527	-0.437224	0.442238	0.433123	-0.406654	0.376006	0.477778	-0.372683	0.393466	0.348382	0.478554	0.435573	0.492318	-0.460163	0.395349	0.455379	0.427769	-0.408941	0.358427	-0.448114
-0.439441	0.289164	0.40782	0.394756	-0.429819	-0.440928	-0.374654	0.436534	-0.414884	-0.320625	-0.446796	-0.376137	-0.443872	-0.30547	0.334571	0.398045	-0.412725	0.440233	0.405393	-0.390489	0.382323	0.359569	0.337185	0.395372	0.363007	-0.364455	0.37497	0.315792	0.393585	-0.408891	0.440954	-0.428909
-0.472115	0.354561	0.480557	0.412454	-0.421803	-0.477423	-0.26328	0.420651	-0.349201	-0.543555	-0.451064	-0.418657	-0.461493	-0.370329	0.426268	0.442405	-0.428309	0.307955	0.626452	-0.418462	0.343459	0.459861	0.369469	0.410697	0.302515	-0.337961	0.367819	0.432671	0.391773	-0.458906	0.296094	-0.410132
-0.496773	0.368949	0.395278	0.375334	-0.399661	-0.339448	-0.337443	0.409227	-0.449966	-0.452082	-0.349661	-0.420495	-0.391121	-0.361388	0.322604	0.407936	-0.447325	0.435816	0.280731	-0.306752	0.484913	0.359266	0.361102	0.365278	0.434128	-0.468612	0.425873	0.306801	0.471354	-0.458332	0.451326	-0.439666
-0.447404	0.38016	0.356511	0.345514	-0.351062	-0.372287	-0.334948	0.448305	-0.395801	-0.476935	-0.377872	-0.358611	-0.400911	-0.42444	0.437676	0.416858	-0.357929	0.344441	0.27451	-0.173695	0.397134	0.419066	0.396151	0.328124	0.391543	-0.386573	0.44366	0.349624	0.367494	-0.370229	0.275814	-0.312137
-0.405113	0.331655	0.359831	0.425815	-0.392143	-0.459097	-0.458477	0.448449	-0.462042	-0.160209	-0.440633	-0.415362	-0.412399	-0.491121	0.371714	0.39769	-0.37761	0.411755	0.553944	-0.387246	0.510584	0.41113	0.493445	0.44998	0.433962	-0.400604	0.427524	0.394813	0.490793	-0.382731	0.482763	-0.412405
-0.467568	0.403536	0.39993	0.43911	-0.397178	-0.42721	-0.361522	0.391378	-0.430826	-0.389822	-0.376679	-0.415586	-0.43643	-0.416051	0.434529	0.371285	-0.433748	0.426386	0.341191	-0.457382	0.449803	0.209373	0.358733	0.442305	0.363479	-0.415409	0.375124	0.313576	0.388027	-0.466043	0.41025	-0.415887
-0.429098	0.395156	0.418739	0.4099	-0.377166	-0.398032	-0.422934	0.344766	-0.372938	-0.372975	-0.374544	-0.371416	-0.396224	-0.379436	0.423357	0.398749	-0.346679	0.383659	0.337446	-0.375442	0.374689	0.433827	0.465094	0.370985	0.372336	-0.392476	0.368633	0.390487	0.413286	-0.433689	0.429633	-0.440303
-0.456934	0.478597	0.45372	0.336517	-0.32657	-0.471713	-0.481757	0.339565	-0.373217	-0.466558	-0.41981	-0.300455	-0.470394	-0.423845	0.390967	0.484775	-0.44423	0.414838	0.364455	-0.546975	0.428274	0.370866	0.288092	0.354183	0.298553	-0.488354	0.367493	0.306117	0.305089	-0.473535	0.341392	-0.356696
-0.45255	0.418003	0.399612	0.441173	-0.415511	-0.423755	-0.382407	0.427961	-0.453532	-0.386508	-0.369258	-0.356451	-0.371156	-0.42204	0.377826	0.427348	-0.433448	0.313333	0.322518	-0.413154	0.467193	0.272709	0.443725	0.418987	0.346089	-0.381508	0.368562	0.384189	0.459121	-0.451735	0.460629	-0.457536
-0.445594	0.409192	0.396165	0.425109	-0.472102	-0.461594	-0.348525	0.383366	-0.401201	-0.25239	-0.417017	-0.463263	-0.463002	-0.458336	0.444171	0.370325	-0.480295	0.364989	0.570298	-0.42035	0.455302	0.403709	0.505142	0.472366	0.369918	-0.42175	0.409186	0.463929	0.472747	-0.452759	0.380728	-0.383569
-0.389644	0.358137	0.397834	0.405537	-0.493579	-0.436827	-0.394203	0.426814	-0.415405	-0.375992	-0.394869	-0.343913	-0.453688	-0.356188	0.427943	0.403627	-0.424021	0.320951	0.284776	-0.345644	0.352185	0.265002	0.414228	0.373464	0.373373	-0.435416	0.419236	0.3357	0.44024	-0.384216	0.423098	-0.371166
-0.370164	0.447163	0.345842	0.415196	-0.416242	-0.369324	-0.372503	0.462093	-0.289181	-0.348665	-0.474669	-0.467896	-0.348622	-0.410441	0.309144	0.497689	-0.310737	0.223127	0.372363	-0.32279	0.309366	0.490934	0.377211	0.418773	0.474669	-0.436798	0.411721	0.507505	0.394794	-0.319347	0.178777	-0.455869
-0.480169	0.378687	0.391889	0.425262	-0.447109	-0.469192	-0.461131	0.375907	-0.458534	-0.452405	-0.436977	-0.399014	-0.381193	-0.400034	0.424725	0.433191	-0.363358	0.479776	0.423332	-0.454804	0.415991	0.403285	0.388754	0.41469	0.450942	-0.433833	0.407978	0.349035	0.464249	-0.438191	0.271819	-0.402796
-0.408887	0.39655	0.370194	0.415754	-0.311548	-0.387606	-0.418349	0.35686	-0.398681	-0.322694	-0.459252	-0.376977	-0.376409	-0.361979	0.412928	0.358791	-0.371718	0.451134	0.291216	-0.457369	0.396709	0.418939	0.458654	0.430339	0.440084	-0.330254	0.368061	0.246544	0.430558	-0.40582	0.42665	-0.432472
-0.315391	0.369542	0.34604	0.401235	-0.326419	-0.4125	-0.308376	0.359942	-0.409663	-0.352971	-0.360062	-0.398595	-0.376284	-0.396634	0.325774	0.422683	-0.374929	0.358066	0.443024	-0.308082	0.423298	0.321809	0.384879	0.375929	0.437161	-0.351852	0.440991	0.311646	0.424881	-0.41165	0.395348	-0.335251
-0.366234	0.295753	0.366877	0.309036	-0.286003	-0.38934	-0.184848	0.34341	-0.276263	-0.478519	-0.377278	-0.301243	-0.350357	-0.269805	0.289174	0.351753	-0.272417	0.305238	0.308018	-0.304094	0.197311	0.378034	0.308755	0.308377	0.319358	-0.321802	0.317854	0.395177	0.233784	-0.304174	0.177904	-0.330364
-0.422597	0.465677	0.447554	0.412662	-0.316818	-0.453284	-0.526839	0.388842	-0.466906	-0.351565	-0.440775	-0.441715	-0.433076	-0.400663	0.446528	0.402487	-0.414664	0.396301	0.192235	-0.479455	0.479315	0.325187	0.445848	0.417216	0.364305	-0.50385	0.452329	0.394854	0.403241	-0.395343	0.463228	-0.458723
-0.370244	0.41508	0.386457	0.381161	-0.455445	-0.419338	-0.403453	0.388902	-0.464246	-0.432728	-0.472641	-0.435894	-0.462755	-0.382738	0.495345	0.445003	-0.410982	0.427197	0.363245	-0.406537	0.494544	0.459547	0.396384	0.464887	0.426036	-0.392861	0.422524	0.351497	0.468477	-0.457655	0.424948	-0.467142
-0.33144	0.378506	0.372151	0.360279	-0.336371	-0.390927	-0.387179	0.330257	-0.3384	-0.272852	-0.417721	-0.381377	-0.441731	-0.416539	0.333936	0.398132	-0.365445	0.276514	0.25	-0.37677	0.345322	0.360766	0.400981	0.423606	0.377622	-0.341953	0.319531	0.416067	0.315328	-0.343052	0.378104	-0.334512
-0.396922	0.393313	0.469392	0.381637	-0.321412	-0.392412	-0.424312	0.378932	-0.365595	-0.366892	-0.350828	-0.417703	-0.392645	-0.349972	0.407868	0.401466	-0.377916	0.411078	0.139787	-0.422672	0.397707	0.295837	0.426267	0.417758	0.418382	-0.422043	0.372853	0.286338	0.384194	-0.40675	0.364157	-0.377559
-0.374655	0.510735	0.39613	0.423787	-0.408492	-0.463066	-0.479257	0.491017	-0.46238	-0.488248	-0.374169	-0.380437	-0.494114	-0.409217	0.461266	0.472498	-0.400656	0.290159	0.537196	-0.466732	0.488101	0.446709	0.390467	0.415544	0.410966	-0.435186	0.399414	0.483845	0.494061	-0.379648	0.461872	-0.429218
-0.397083	0.425752	0.442179	0.466373	-0.410795	-0.386416	-0.351202	0.367647	-0.354132	-0.40435	-0.459583	-0.399027	-0.468709	-0.351726	0.433997	0.40628	-0.370541	0.411735	0.494647	-0.362616	0.377848	0.302879	0.461555	0.365983	0.36797	-0.456349	0.479086	0.445449	0.427037	-0.460427	0.476092	-0.404169
-0.358535	0.37675	0.374464	0.466505	-0.471684	-0.418483	-0.398052	0.409288	-0.45485	-0.349149	-0.456221	-0.480549	-0.414681	-0.46213	0.475011	0.402467	-0.396113	0.301376	0.415591	-0.257444	0.447018	0.42266	0.379843	0.387674	0.422596	-0.487302	0.488361	0.430369	0.449893	-0.468074	0.406739	-0.454341
-0.255162	0.428042	0.430122	0.391413	-0.472936	-0.355172	-0.420454	0.438552	-0.50244	-0.279908	-0.429877	-0.440672	-0.43577	-0.442938	0.462316	0.488467	-0.466941	0.331443	0.386601	-0.454582	0.44702	0.363281	0.383535	0.420504	0.363464	-0.398395	0.390135	0.337475	0.441464	-0.454935	0.417722	-0.398169
-0.412386	0.384533	0.405161	0.356697	-0.402972	-0.416651	-0.473119	0.420717	-0.416889	-0.467888	-0.393778	-0.41391	-0.394046	-0.440289	0.42101	0.461757	-0.414855	0.397844	0.43574	-0.255043	0.388258	0.393936	0.417118	0.422851	0.400596	-0.42709	0.385759	0.471248	0.429861	-0.414268	0.428187	-0.364632
-0.451447	0.367462	0.367665	0.353509	-0.413867	-0.358582	-0.453032	0.421365	-0.45379	-0.488946	-0.400041	-0.339977	-0.414789	-0.408736	0.444946	0.392359	-0.394575	0.488659	0.384927	-0.424716	0.430097	0.254731	0.414833	0.402071	0.448099	-0.387105	0.398726	0.371508	0.380471	-0.464754	0.28783	-0.378588
-0.279774	0.471888	0.386052	0.405278	-0.349745	-0.355538	-0.458661	0.370798	-0.40499	-0.359257	-0.399913	-0.404039	-0.412773	-0.466672	0.408377	0.353105	-0.459365	0.372482	0.390361	-0.368916	0.451236	0.450281	0.360624	0.461918	0.37163	-0.413161	0.366393	0.393266	0.384968	-0.365871	0.379361	-0.4356
-0.311914	0.399676	0.395712	0.387754	-0.462196	-0.309414	-0.338198	0.361904	-0.34209	-0.350257	-0.369529	-0.362855	-0.392452	-0.333164	0.348665	0.347759	-0.347333	0.373031	0.38075	-0.349204	0.423458	0.324098	0.381148	0.424376	0.397932	-0.269267	0.422698	0.338125	0.400912	-0.406191	0.427093	-0.413607
-0.392298	0.369917	0.416429	0.383136	-0.396277	-0.421812	-0.372974	0.43251	-0.4381	-0.439709	-0.399314	-0.39052	-0.342742	-0.383084	0.320258	0.421918	-0.405021	0.374124	0.196136	-0.467969	0.348559	0.322944	0.398724	0.397034	0.351644	-0.419468	0.393247	0.288646	0.376341	-0.389445	0.375525	-0.419105
-0.355843	0.383871	0.322608	0.434622	-0.375085	-0.434978	-0.337822	0.407736	-0.437844	-0.31609	-0.381683	-0.329359	-0.475985	-0.292119	0.288363	0.392113	-0.454378	0.303576	0.262942	-0.408148	0.359763	0.355002	0.268305	0.407216	0.426015	-0.373906	0.309318	0.277044	0.43252	-0.440309	0.369165	-0.369515
-0.293068	0.427164	0.470679	0.45528	-0.486476	-0.421479	-0.446192	0.413856	-0.402319	-0.40508	-0.464771	-0.432858	-0.392491	-0.460132	0.375847	0.386471	-0.457776	0.2848	0.408124	-0.220366	0.449266	0.321967	0.367543	0.486016	0.49034	-0.425984	0.495894	0.493327	0.486168	-0.484495	0.342623	-0.364795
-0.316053	0.381381	0.443233	0.445339	-0.411766	-0.411725	-0.456498	0.402314	-0.461941	-0.401024	-0.448117	-0.415511	-0.461457	-0.480669	0.489232	0.503804	-0.427991	0.436813	0.406585	-0.371588	0.485458	0.425624	0.364045	0.470669	0.490418	-0.422476	0.443297	0.469871	0.413695	-0.491123	0.346004	-0.402729
-0.462271	0.441484	0.358326	0.473667	-0.417516	-0.439583	-0.412272	0.434633	-0.388515	-0.462976	-0.461149	-0.357806	-0.406427	-0.432056	0.445916	0.409681	-0.382441	0.332932	0.452849	-0.391433	0.44477	0.419959	0.48267	0.44428	0.430528	-0.479758	0.478842	0.4201	0.486774	-0.363469	0.461435	-0.379491
-0.429186	0.434593	0.445546	0.417339	-0.337453	-0.462535	-0.373447	0.370677	-0.448466	-0.28086	-0.418806	-0.399385	-0.453593	-0.383224	0.355541	0.427609	-0.481693	0.30123	0.511301	-0.267028	0.475089	0.470825	0.485035	0.421454	0.487406	-0.399348	0.420028	0.422263	0.425594	-0.441446	0.356275	-0.412022
-0.404531	0.389312	0.40136	0.342847	-0.37365	-0.363255	-0.410754	0.392939	-0.335741	-0.336191	-0.312117	-0.394032	-0.438086	-0.366833	0.380377	0.419479	-0.441451	0.357537	0.193468	-0.409079	0.354889	0.347473	0.453077	0.405356	0.439937	-0.356834	0.405746	0.375307	0.439467	-0.429654	0.382028	-0.409318
-0.356623	0.360719	0.3249	0.400451	-0.442126	-0.390856	-0.404631	0.381352	-0.416598	-0.227312	-0.402177	-0.393551	-0.427571	-0.339808	0.377443	0.363981	-0.423337	0.427187	0.534828	-0.492595	0.452639	0.348962	0.327764	0.348993	0.324401	-0.397723	0.450311	0.258528	0.397025	-0.436597	0.371133	-0.423759
-0.503695	0.367718	0.410773	0.431324	-0.465212	-0.461744	-0.395642	0.47894	-0.453048	-0.391996	-0.391535	-0.316599	-0.405761	-0.428423	0.402124	0.37336	-0.432342	0.434062	0.311389	-0.494807	0.378486	0.40202	0.426072	0.430827	0.416293	-0.414201	0.407983	0.269675	0.468726	-0.422096	0.475981	-0.395087
-0.447775	0.422151	0.446345	0.354545	-0.257802	-0.330064	-0.311396	0.472784	-0.264789	-0.174705	-0.315604	-0.320667	-0.231526	-0.402191	0.238619	0.406842	-0.342742	0.52745	0.00629969	-0.0701473	0.464665	0.410004	0.275298	0.469477	0.243716	-0.366022	0.455965	0.429606	0.318218	-0.352534	0.286863	-0.398225
-0.389282	0.485149	0.449097	0.366971	-0.298833	-0.436091	-0.51038	0.474749	-0.477835	-0.23724	-0.417907	-0.456184	-0.492435	-0.433155	0.446309	0.476695	-0.447237	0.391063	0.384148	-0.49434	0.396721	0.357335	0.419357	0.415965	0.471635	-0.394271	0.46958	0.339862	0.444447	-0.410616	0.335785	-0.50048
-0.491168	0.373606	0.469133	0.405516	-0.267183	-0.389279	-0.440774	0.436906	-0.435542	-0.403132	-0.455519	-0.383673	-0.461467	-0.441273	0.404988	0.389667	-0.496186	0.410611	0.192717	-0.407433	0.45847	0.393233	0.46509	0.452535	0.416	-0.435225	0.400321	0.366202	0.403537	-0.38281	0.481291	-0.47548
-0.263097	0.349182	0.394778	0.353745	-0.417151	-0.33868	-0.34817	0.39659	-0.304836	-0.332923	-0.360767	-0.305454	-0.321441	-0.328546	0.321182	0.359612	-0.350841	0.442465	0.328236	-0.278622	0.3903	0.338839	0.436909	0.368323	0.377227	-0.308424	0.382124	0.341915	0.284515	-0.382478	0.290453	-0.309761
-0.351581	0.447219	0.395455	0.492929	-0.253938	-0.382699	-0.326643	0.430109	-0.322412	-0.475387	-0.482059	-0.408175	-0.408532	-0.349595	0.230751	0.402107	-0.249374	0.273434	0.423227	-0.343567	0.331488	0.546542	0.336976	0.299293	0.512196	-0.309351	0.438263	0.491963	0.449202	-0.35127	0.187845	-0.427255
-0.328911	0.320261	0.27716	0.332952	-0.225624	-0.346808	-0.160881	0.356354	-0.257836	-0.4433	-0.357797	-0.373056	-0.234112	-0.233967	0.270185	0.416536	-0.164258	0.262764	0.155524	-0.0931233	0.23515	0.432766	0.394348	0.22931	0.355099	-0.168551	0.268533	0.278791	0.21827	-0.113075	0.16731	-0.287447
-0.402526	0.371964	0.428112	0.406703	-0.36489	-0.346246	-0.417979	0.297443	-0.405933	-0.269269	-0.42444	-0.319952	-0.378145	-0.30356	0.325861	0.43382	-0.340907	0.382015	0.566263	-0.25329	0.388695	0.381685	0.390788	0.346438	0.447176	-0.361512	0.461386	0.376751	0.439069	-0.370247	0.314902	-0.394558
-0.351031	0.360205	0.438061	0.367481	-0.414979	-0.459225	-0.371401	0.278306	-0.394846	-0.292936	-0.369163	-0.45452	-0.477865	-0.473911	0.447634	0.461956	-0.349126	0.311165	0.458622	-0.17608	0.451164	0.322217	0.380499	0.393574	0.484241	-0.427925	0.413866	0.384236	0.443773	-0.351921	0.329929	-0.445098
-0.438126	0.479152	0.47911	0.379815	-0.345878	-0.451444	-0.459144	0.460315	-0.438235	-0.339544	-0.362856	-0.428218	-0.462118	-0.391897	0.474285	0.430049	-0.408768	0.308925	0.189478	-0.32558	0.431267	0.458044	0.417893	0.494654	0.418503	-0.454941	0.471356	0.485688	0.400551	-0.379584	0.561217	-0.390235
-0.384063	0.376314	0.438442	0.372487	-0.373787	-0.449241	-0.34375	0.414632	-0.367666	-0.333074	-0.44036	-0.45948	-0.354889	-0.428285	0.449767	0.447645	-0.399735	0.222051	0.276649	-0.346077	0.454738	0.335503	0.327584	0.365417	0.42231	-0.392426	0.420551	0.412761	0.350429	-0.423598	0.471795	-0.435563
-0.381507	0.270332	0.318236	0.387134	-0.432036	-0.318913	-0.344684	0.349136	-0.355306	-0.530731	-0.411236	-0.321655	-0.362895	-0.429654	0.370198	0.330969	-0.440651	0.437192	0.29095	-0.395065	0.435786	0.374209	0.328454	0.328447	0.319471	-0.346488	0.37063	0.344107	0.416413	-0.43345	0.345465	-0.322188
-0.281985	0.341695	0.385007	0.407662	-0.392795	-0.456939	-0.382642	0.374057	-0.478493	-0.230237	-0.350385	-0.388548	-0.470589	-0.412705	0.396699	0.395271	-0.382896	0.354813	0.475172	-0.318752	0.412929	0.409413	0.382001	0.434776	0.434021	-0.379103	0.43204	0.433001	0.320786	-0.341758	0.447955	-0.387834
-0.497398	0.343111	0.441308	0.43945	-0.219113	-0.374437	-0.478151	0.263405	-0.439094	-0.374545	-0.314748	-0.392376	-0.462775	-0.419939	0.319196	0.464832	-0.306324	0.352639	0.2356	-0.295375	0.317244	0.190593	0.350949	0.39513	0.333475	-0.417427	0.488837	0.367359	0.400371	-0.34155	0.343279	-0.435271
-0.410737	0.428128	0.389306	0.415973	-0.339835	-0.383675	-0.356949	0.341697	-0.385426	-0.388617	-0.381601	-0.332856	-0.406694	-0.377446	0.399434	0.36271	-0.446876	0.350448	0.38595	-0.350856	0.365843	0.30193	0.329247	0.344939	0.380142	-0.372413	0.390018	0.325033	0.375663	-0.319432	0.398394	-0.336219
-0.421483	0.365263	0.350691	0.375489	-0.442309	-0.423226	-0.371725	0.366116	-0.4629	-0.419817	-0.447789	-0.348004	-0.420807	-0.445317	0.35361	0.441768	-0.383694	0.245406	0.338583	-0.314175	0.486033	0.409405	0.387697	0.413086	0.378996	-0.455252	0.485614	0.354948	0.406814	-0.369811	0.430084	-0.349291
-0.350247	0.39078	0.394926	0.444706	-0.382674	-0.32685	-0.326434	0.347805	-0.439012	-0.243719	-0.406279	-0.416524	-0.377508	-0.387338	0.418324	0.383667	-0.387078	0.321957	0.376171	-0.3204	0.363854	0.437062	0.462406	0.386907	0.453024	-0.413762	0.385637	0.367482	0.470737	-0.338929	0.399634	-0.346118
-0.44959	0.45215	0.446656	0.41967	-0.4651	-0.481742	-0.448866	0.385559	-0.434609	-0.360995	-0.480394	-0.371913	-0.42537	-0.510244	0.464081	0.391123	-0.47285	0.469705	0.463404	-0.346927	0.455175	0.452335	0.489308	0.401652	0.379595	-0.471755	0.416977	0.471632	0.423663	-0.482151	0.479844	-0.390626
-0.423862	0.351309	0.37484	0.38429	-0.462434	-0.42775	-0.469947	0.458375	-0.439276	-0.349606	-0.441937	-0.462819	-0.483979	-0.389761	0.371622	0.380644	-0.456627	0.454752	0.354714	-0.480225	0.496863	0.329247	0.489594	0.433449	0.445905	-0.479306	0.400657	0.341609	0.449446	-0.469767	0.412471	-0.464903
-0.351238	0.399268	0.444887	0.356458	-0.297871	-0.397989	-0.398059	0.448031	-0.416643	-0.538625	-0.428826	-0.391848	-0.351898	-0.353242	0.343606	0.404156	-0.327163	0.467316	0.25635	-0.251412	0.360056	0.477622	0.39669	0.445921	0.436598	-0.29682	0.444628	0.460808	0.408454	-0.339622	0.24493	-0.345547
-0.461461	0.417281	0.470106	0.411363	-0.497555	-0.492042	-0.358026	0.407068	-0.438414	-0.524561	-0.442622	-0.425273	-0.417885	-0.387943	0.41127	0.395599	-0.355892	0.44105	0.411786	-0.356364	0.436247	0.50911	0.440174	0.407903	0.508417	-0.342955	0.392993	0.532793	0.472738	-0.382568	0.3303	-0.476494
-0.408854	0.388769	0.388039	0.399083	-0.404946	-0.364963	-0.438661	0.422801	-0.442406	-0.331065	-0.474229	-0.462382	-0.443622	-0.447398	0.407686	0.501957	-0.388664	0.329849	0.572007	-0.275877	0.495279	0.452659	0.45677	0.393949	0.427881	-0.424854	0.413025	0.509221	0.420242	-0.466206	0.363881	-0.411166
-0.359722	0.331053	0.357742	0.404969	-0.407914	-0.454323	-0.48166	0.483649	-0.449698	-0.357627	-0.416595	-0.312113	-0.373688	-0.404193	0.407084	0.389039	-0.363536	0.391232	0.351468	-0.387995	0.422878	0.47801	0.438775	0.421769	0.350945	-0.385203	0.455392	0.342163	0.40466	-0.361273	0.298477	-0.393845
-0.393321	0.40978	0.447836	0.473581	-0.499236	-0.413854	-0.43218	0.417233	-0.440272	-0.429797	-0.488327	-0.40216	-0.45514	-0.461903	0.433207	0.409311	-0.386254	0.402008	0.366429	-0.374671	0.382626	0.433328	0.396921	0.46103	0.423094	-0.465539	0.494814	0.447018	0.455529	-0.453898	0.398564	-0.444492
-0.451086	0.465486	0.403474	0.43754	-0.475243	-0.425108	-0.363347	0.470006	-0.420207	-0.463689	-0.517078	-0.3904	-0.469628	-0.435721	0.493048	0.507526	-0.4734	0.319422	0.245941	-0.306537	0.391328	0.485707	0.400026	0.461076	0.481146	-0.437941	0.410999	0.419943	0.442666	-0.49601	0.465796	-0.40311
-0.299264	0.44611	0.412883	0.434419	-0.302964	-0.43659	-0.448186	0.475561	-0.429602	-0.35607	-0.422737	-0.398279	-0.501846	-0.449615	0.452415	0.461616	-0.503039	0.434915	0.305284	-0.394227	0.505215	0.494351	0.41067	0.425318	0.40873	-0.385869	0.454331	0.282016	0.393998	-0.463581	0.438116	-0.494855
-0.326791	0.434865	0.363449	0.414467	-0.332585	-0.338586	-0.435131	0.339567	-0.385117	-0.356375	-0.436357	-0.408451	-0.459299	-0.477263	0.392799	0.403174	-0.331287	0.400255	0.562533	-0.295055	0.424081	0.457082	0.518992	0.40747	0.506105	-0.406833	0.410978	0.383106	0.412795	-0.445005	0.483332	-0.404783
-0.391861	0.365599	0.473652	0.423086	-0.473362	-0.480947	-0.407781	0.474147	-0.444588	-0.368795	-0.386481	-0.464809	-0.501923	-0.487359	0.43587	0.451365	-0.48604	0.363089	0.462793	-0.412469	0.404791	0.319274	0.462786	0.490366	0.399742	-0.470819	0.404784	0.311194	0.454096	-0.427205	0.36672	-0.442679
-0.473772	0.458513	0.379998	0.488526	-0.447428	-0.483683	-0.292897	0.44985	-0.396916	-0.438925	-0.39562	-0.43101	-0.42742	-0.499892	0.481729	0.474225	-0.435098	0.287029	0.488172	-0.28046	0.456443	0.410508	0.339466	0.356053	0.433663	-0.453123	0.401897	0.371426	0.465117	-0.452542	0.476428	-0.420064
-0.270254	0.286593	0.30132	0.339438	-0.244271	-0.391446	-0.308318	0.307317	-0.380469	-0.309117	-0.331685	-0.291735	-0.307658	-0.289225	0.338575	0.347578	-0.286828	0.337689	0.0924433	-0.301057	0.272839	0.271109	0.343363	0.352604	0.348536	-0.344157	0.283083	0.0943082	0.403834	-0.289151	0.259599	-0.349263
-0.392602	0.458473	0.348422	0.407152	-0.418537	-0.35749	-0.459834	0.43448	-0.3962	-0.205952	-0.260287	-0.315652	-0.40378	-0.372238	0.359343	0.346308	-0.331431	0.315909	0.21642	-0.395517	0.449501	0.358088	0.390666	0.397922	0.371101	-0.469566	0.345675	0.315111	0.435623	-0.357069	0.464574	-0.396039
-0.437171	0.497951	0.39176	0.455017	-0.486724	-0.44103	-0.36356	0.40996	-0.414697	-0.250575	-0.334713	-0.469605	-0.44383	-0.438356	0.344535	0.447986	-0.413328	0.243976	0.353568	-0.444521	0.455333	0.357434	0.34324	0.477572	0.405022	-0.342902	0.468079	0.457143	0.381778	-0.353257	0.435015	-0.426145
-0.386763	0.434883	0.376764	0.252815	-0.393709	-0.385174	-0.375615	0.352626	-0.304735	-0.466219	-0.343274	-0.381201	-0.380388	-0.388725	0.446639	0.372559	-0.331012	0.219649	0.237579	-0.127163	0.378761	0.399176	0.328098	0.399147	0.40699	-0.371294	0.339575	0.464604	0.356111	-0.337024	0.428955	-0.375745
-0.392561	0.434857	0.419671	0.355695	-0.378418	-0.350246	-0.359823	0.398192	-0.455986	-0.410416	-0.416617	-0.435936	-0.420543	-0.428253	0.46275	0.449876	-0.458703	0.34187	0.329148	-0.395679	0.411182	0.366897	0.403387	0.352901	0.403505	-0.390812	0.446402	0.376848	0.382129	-0.458975	0.373704	-0.434379
-0.452559	0.402808	0.418802	0.394044	-0.45313	-0.459167	-0.331429	0.479491	-0.382826	-0.452391	-0.396936	-0.414341	-0.372129	-0.37793	0.447963	0.428206	-0.403001	0.347255	0.23836	-0.523657	0.426177	0.25407	0.465188	0.40518	0.370049	-0.435653	0.407834	0.314373	0.411709	-0.353825	0.424875	-0.4226
-0.488878	0.406869	0.439218	0.425448	-0.482323	-0.421112	-0.482613	0.431495	-0.397217	-0.496553	-0.429605	-0.366068	-0.486673	-0.385627	0.426056	0.341132	-0.403331	0.367748	0.167318	-0.332002	0.486085	0.327038	0.44949	0.363625	0.465476	-0.395828	0.453558	0.263371	0.487822	-0.39757	0.405883	-0.337958
-0.458401	0.300504	0.463071	0.225734	-0.400082	-0.515331	-0.359158	0.525432	-0.29699	-0.463576	-0.542187	-0.373024	-0.460459	-0.515371	0.417558	0.304694	-0.410717	0.354276	0.168957	-0.0275028	0.354024	0.37618	0.251479	0.556322	0.559387	-0.405583	0.370761	0.579087	0.414389	-0.409051	0.572477	-0.451629
-0.350775	0.385694	0.330631	0.398303	-0.416326	-0.457851	-0.337165	0.404026	-0.390359	-0.396301	-0.385253	-0.397629	-0.42839	-0.318967	0.410479	0.427939	-0.353555	0.320326	0.440319	-0.427138	0.419304	0.372704	0.415909	0.335333	0.34999	-0.369281	0.334786	0.38028	0.426322	-0.447765	0.366087	-0.409658
-0.338426	0.397643	0.422265	0.437686	-0.455106	-0.466862	-0.377907	0.404488	-0.437946	-0.443828	-0.48156	-0.375049	-0.379019	-0.476977	0.480892	0.426489	-0.473424	0.4014	0.435127	-0.362572	0.473939	0.390358	0.394677	0.390672	0.438686	-0.362102	0.439859	0.462036	0.377311	-0.448347	0.404038	-0.373284
-0.452554	0.404031	0.440316	0.428203	-0.33823	-0.370168	-0.406696	0.459345	-0.401314	-0.400032	-0.498489	-0.489695	-0.388476	-0.448649	0.422171	0.404421	-0.423736	0.29796	0.513955	-0.348	0.414287	0.373577	0.46084	0.458923	0.458532	-0.500743	0.504779	0.45093	0.457155	-0.451164	0.341031	-0.458659
-0.293584	0.430568	0.429964	0.372459	-0.3405	-0.461933	-0.468098	0.50023	-0.493182	-0.347279	-0.424923	-0.447827	-0.445429	-0.432032	0.417887	0.507855	-0.499896	0.384685	0.334406	-0.410222	0.469895	0.463391	0.383017	0.395584	0.466388	-0.381781	0.416767	0.392767	0.45592	-0.452871	0.399143	-0.477886
-0.437308	0.377504	0.377267	0.387839	-0.401281	-0.40527	-0.442561	0.383549	-0.43976	-0.354015	-0.393592	-0.422583	-0.421182	-0.419047	0.45401	0.399015	-0.380984	0.418296	0.424352	-0.327784	0.3808	0.44149	0.415699	0.412544	0.349283	-0.437949	0.446196	0.449263	0.414465	-0.44852	0.497081	-0.477779
-0.437102	0.417232	0.385311	0.491716	-0.484414	-0.364719	-0.358943	0.383376	-0.376907	-0.353783	-0.505399	-0.488414	-0.474623	-0.357524	0.374294	0.455879	-0.384912	0.374337	0.453079	-0.291523	0.370434	0.4761	0.403158	0.393206	0.466438	-0.449431	0.445702	0.468863	0.464515	-0.375157	0.391945	-0.390497
-0.32792	0.510691	0.483263	0.437833	-0.291334	-0.293422	-0.513097	0.359283	-0.469152	-0.0692847	-0.388384	-0.477597	-0.320167	-0.451161	0.411099	0.511874	-0.443438	0.472686	0.430052	-0.455134	0.341125	0.403253	0.343646	0.333946	0.320484	-0.574946	0.356857	0.0848915	0.527408	-0.41441	0.292532	-0.462391
-0.372471	0.479546	0.390413	0.471213	-0.46855	-0.367867	-0.430549	0.377969	-0.387861	-0.291647	-0.502885	-0.483184	-0.457743	-0.50167	0.490402	0.389774	-0.389315	0.428947	0.546898	-0.282444	0.40053	0.44588	0.448375	0.467035	0.349906	-0.399415	0.393583	0.506226	0.419679	-0.403284	0.481301	-0.470293
-0.307904	0.460246	0.340787	0.359026	-0.203023	-0.361298	-0.435309	0.28233	-0.379766	-0.355472	-0.318491	-0.38284	-0.328933	-0.36351	0.428991	0.439692	-0.404069	0.32735	0.542481	-0.389341	0.364515	0.369763	0.258808	0.430256	0.371531	-0.315935	0.318789	0.28414	0.327365	-0.300814	0.426033	-0.420545
-0.409121	0.397993	0.382079	0.411728	-0.310298	-0.425114	-0.42586	0.377461	-0.386164	-0.378216	-0.336717	-0.373693	-0.365355	-0.351989	0.413315	0.35251	-0.434214	0.334893	0.336697	-0.233796	0.406194	0.37563	0.417938	0.392396	0.362064	-0.347852	0.412422	0.398892	0.433284	-0.393381	0.449752	-0.407703
-0.382154	0.46411	0.43526	0.427582	-0.359893	-0.434104	-0.406047	0.43981	-0.469707	-0.312136	-0.439112	-0.439496	-0.396934	-0.444476	0.416825	0.432905	-0.485478	0.39181	0.39216	-0.423479	0.418638	0.384816	0.349153	0.389917	0.394081	-0.380915	0.454932	0.330317	0.371012	-0.467895	0.469453	-0.413829
-0.291977	0.354535	0.36754	0.342062	-0.283933	-0.369172	-0.33374	0.258547	-0.408582	-0.324923	-0.303339	-0.308337	-0.291767	-0.388544	0.323139	0.345234	-0.412261	0.376571	0.244962	-0.435831	0.394126	0.359777	0.445725	0.301484	0.349321	-0.359967	0.288305	0.386991	0.366562	-0.36332	0.311857	-0.303968
-0.477924	0.455826	0.416848	0.408425	-0.475271	-0.49275	-0.460675	0.424519	-0.437612	-0.347116	-0.499796	-0.466853	-0.43024	-0.455802	0.405879	0.45889	-0.394809	0.470168	0.240954	-0.406232	0.48837	0.262097	0.371519	0.443458	0.358783	-0.471618	0.451523	0.388597	0.456684	-0.503574	0.311636	-0.441467
-0.439376	0.398835	0.394408	0.363809	-0.448709	-0.463676	-0.45301	0.346107	-0.474961	-0.367492	-0.480308	-0.44592	-0.41919	-0.395774	0.491905	0.395452	-0.377298	0.333572	0.429268	-0.36687	0.434875	0.35788	0.46129	0.480687	0.365286	-0.358912	0.361181	0.43095	0.502713	-0.41697	0.502914	-0.354645
-0.442474	0.458473	0.482579	0.419734	-0.506788	-0.43285	-0.317578	0.44455	-0.466757	-0.382611	-0.403788	-0.409449	-0.406404	-0.482872	0.477222	0.460853	-0.428867	0.349465	0.444035	-0.401555	0.493918	0.507625	0.438067	0.482648	0.408413	-0.407514	0.410012	0.373109	0.421676	-0.48545	0.377838	-0.478443
-0.413154	0.37363	0.413761	0.37071	-0.457288	-0.398263	-0.41321	0.422634	-0.384798	-0.401227	-0.413442	-0.41313	-0.429042	-0.393412	0.351623	0.430521	-0.465033	0.377951	0.351206	-0.392641	0.365161	0.436783	0.340011	0.394425	0.38852	-0.309931	0.360494	0.405194	0.354558	-0.396292	0.351508	-0.411434
-0.446389	0.323423	0.370371	0.344081	-0.183305	-0.289815	-0.350444	0.349501	-0.380231	-0.508533	-0.313842	-0.347351	-0.425244	-0.412265	0.268643	0.457736	-0.285037	0.267262	0.540545	-0.189521	0.267198	0.322573	0.314122	0.355158	0.5463	-0.31116	0.457286	0.560517	0.307686	-0.303394	0.290343	-0.313144
-0.117577	0.266119	0.310738	0.263935	-0.242194	-0.251037	-0.272392	0.209091	-0.219525	-0.286507	-0.220225	-0.299212	-0.203646	-0.233069	0.267923	0.314497	-0.292802	0.375667	0.398417	-0.257032	0.219286	0.293231	0.2617	0.202492	0.145089	-0.25954	0.223091	0.332235	0.202894	-0.300567	0.267661	-0.271539
-0.44868	0.483381	0.439262	0.425745	-0.390304	-0.452452	-0.432817	0.502731	-0.37649	-0.503179	-0.402523	-0.494763	-0.440741	-0.407616	0.360434	0.423569	-0.441395	0.468913	0.254606	-0.349463	0.497164	0.450886	0.37672	0.45039	0.522875	-0.34828	0.444111	0.555533	0.39277	-0.409963	0.292835	-0.421061
-0.435546	0.387788	0.406601	0.470266	-0.352209	-0.404447	-0.407848	0.417607	-0.465778	-0.338027	-0.449165	-0.411468	-0.442163	-0.363449	0.401524	0.446517	-0.40237	0.412334	0.363292	-0.303044	0.413144	0.334385	0.323508	0.405758	0.419084	-0.331083	0.427672	0.378294	0.441841	-0.405409	0.365593	-0.388852
-0.359951	0.352797	0.388087	0.312187	-0.343247	-0.373551	-0.392926	0.455454	-0.349033	-0.200628	-0.433857	-0.396678	-0.389457	-0.418608	0.345081	0.419487	-0.369493	0.298917	0.436186	-0.368512	0.367163	0.303857	0.317586	0.405214	0.410704	-0.40022	0.443866	0.456039	0.414086	-0.375548	0.297512	-0.353569
-0.465796	0.469494	0.448549	0.355258	-0.397406	-0.36742	-0.339495	0.397615	-0.459834	-0.452159	-0.370636	-0.370058	-0.374887	-0.398485	0.485223	0.480365	-0.383894	0.370148	0.355338	-0.244235	0.323602	0.381349	0.477607	0.412801	0.467201	-0.435592	0.366851	0.391214	0.432848	-0.458057	0.298335	-0.435828
-0.410514	0.397796	0.414793	0.404837	-0.485329	-0.439021	-0.483561	0.475322	-0.447967	-0.372754	-0.41413	-0.381634	-0.466222	-0.462381	0.458254	0.466857	-0.433302	0.362278	0.277988	-0.387684	0.443614	0.372793	0.440293	0.441923	0.4273	-0.443341	0.487964	0.447777	0.393897	-0.410213	0.439496	-0.449807
-0.43409	0.47117	0.40164	0.353299	-0.389072	-0.353207	-0.452908	0.448188	-0.383812	-0.343938	-0.480058	-0.462353	-0.449438	-0.377942	0.368138	0.405571	-0.421777	0.334553	0.550568	-0.335997	0.430114	0.322529	0.431241	0.405053	0.455556	-0.461357	0.441539	0.431371	0.430544	-0.344085	0.458258	-0.397511
-0.273321	0.330595	0.407139	0.494685	-0.334339	-0.316459	-0.415208	0.35276	-0.464115	-0.350924	-0.434418	-0.341156	-0.397715	-0.432484	0.320808	0.464924	-0.481035	0.374699	0.400031	-0.33455	0.393346	0.428463	0.528617	0.388762	0.41218	-0.334422	0.471679	0.408765	0.504673	-0.4031	0.423827	-0.345461
-0.306611	0.43934	0.417473	0.422529	-0.448826	-0.438136	-0.481591	0.333691	-0.403715	-0.386025	-0.48891	-0.389457	-0.36638	-0.521917	0.438582	0.474016	-0.489648	0.335115	0.543911	-0.27439	0.478324	0.483675	0.343521	0.429501	0.398694	-0.378043	0.445989	0.518529	0.370439	-0.397848	0.433797	-0.433321
-0.322999	0.375565	0.395947	0.348791	-0.352847	-0.366066	-0.299727	0.342355	-0.286794	-0.239053	-0.379735	-0.345861	-0.379414	-0.397559	0.351754	0.28224	-0.330721	0.259119	0.0613989	-0.272217	0.354187	0.28066	0.208814	0.398485	0.27719	-0.29798	0.418856	0.496978	0.352538	-0.313892	0.352888	-0.36652
-0.338054	0.368978	0.384908	0.456244	-0.43799	-0.481863	-0.37571	0.450075	-0.437068	-0.491623	-0.328024	-0.438897	-0.436722	-0.434452	0.427961	0.375992	-0.407263	0.465832	0.421072	-0.439848	0.468865	0.423455	0.433469	0.408067	0.364908	-0.524568	0.467593	0.4921	0.442353	-0.483416	0.515384	-0.465854
-0.320368	0.365288	0.375618	0.4346	-0.361776	-0.445504	-0.437612	0.47335	-0.401926	-0.418707	-0.404472	-0.466622	-0.426322	-0.428547	0.422399	0.442144	-0.460525	0.333532	0.517966	-0.346152	0.412856	0.440758	0.430771	0.419542	0.394234	-0.421137	0.511241	0.399402	0.367498	-0.401377	0.449577	-0.345997
-0.453934	0.440264	0.414632	0.493021	-0.455794	-0.443325	-0.425089	0.464026	-0.49332	-0.321806	-0.442986	-0.376497	-0.46546	-0.476185	0.438611	0.521854	-0.392309	0.432703	-0.0608349	-0.365926	0.402285	0.438032	0.546657	0.38777	0.446173	-0.464541	0.433837	0.322502	0.498752	-0.497483	0.446321	-0.467476
-0.388318	0.41554	0.385304	0.414797	-0.355151	-0.37337	-0.431488	0.355477	-0.419547	-0.394766	-0.424457	-0.436407	-0.363482	-0.393129	0.371799	0.35951	-0.356124	0.335727	0.238642	-0.273256	0.378014	0.455796	0.396209	0.417413	0.375151	-0.350118	0.377614	0.446509	0.422361	-0.351221	0.452024	-0.417314
-0.336759	0.404533	0.418453	0.358746	-0.295257	-0.390035	-0.393756	0.39613	-0.33338	-0.420162	-0.331998	-0.444083	-0.466274	-0.323648	0.340673	0.34829	-0.366943	0.260835	0.211682	-0.310349	0.387862	0.290972	0.453583	0.399394	0.43765	-0.393854	0.414552	0.267593	0.416172	-0.449747	0.280279	-0.352521
-0.293918	0.401196	0.445839	0.353427	-0.293375	-0.375266	-0.470641	0.426712	-0.400245	-0.339809	-0.390237	-0.361859	-0.444493	-0.358284	0.386342	0.397026	-0.431673	0.279368	0.47878	-0.290031	0.355916	0.327981	0.371434	0.358462	0.427249	-0.369031	0.422937	0.255902	0.362485	-0.433424	0.437998	-0.35444
-0.277369	0.368386	0.453169	0.34942	-0.396999	-0.38342	-0.374193	0.371744	-0.41076	-0.363081	-0.440495	-0.388213	-0.387818	-0.312806	0.382029	0.451136	-0.39478	0.329726	0.597041	-0.251652	0.409191	0.309329	0.432054	0.400166	0.363687	-0.344201	0.378878	0.443082	0.416615	-0.447921	0.339376	-0.417674
-0.371124	0.389933	0.346101	0.276916	-0.359065	-0.358881	-0.28878	0.324791	-0.330762	-0.354346	-0.423907	-0.41675	-0.391102	-0.409585	0.355459	0.392943	-0.417086	0.327477	0.36656	-0.260154	0.346857	0.268476	0.206428	0.332162	0.304262	-0.34688	0.384374	0.309017	0.387759	-0.306309	0.480945	-0.342556
-0.351283	0.41342	0.368974	0.463209	-0.510304	-0.471232	-0.53635	0.399395	-0.422826	-0.315033	-0.533882	-0.452195	-0.401843	-0.496169	0.464064	0.471057	-0.474681	0.366971	0.214872	-0.235454	0.395254	0.360273	0.434504	0.402621	0.504691	-0.499324	0.413809	0.517794	0.521543	-0.364754	0.306517	-0.346994
-0.392612	0.331636	0.299981	0.317062	-0.341404	-0.376646	-0.292773	0.3355	-0.37278	-0.393562	-0.375281	-0.351394	-0.318616	-0.2936	0.370562	0.33229	-0.381846	0.338158	0.394844	-0.278754	0.329787	0.322569	0.354278	0.373605	0.402576	-0.300783	0.362648	0.277653	0.410557	-0.302758	0.265505	-0.348789
-0.41111	0.354729	0.447773	0.405887	-0.379875	-0.46523	-0.407653	0.397425	-0.442893	-0.418059	-0.393492	-0.438467	-0.396083	-0.352739	0.346017	0.385385	-0.466022	0.389145	0.395854	-0.408468	0.444687	0.382512	0.457321	0.438022	0.397815	-0.421211	0.456441	0.337761	0.337584	-0.439712	0.463478	-0.415479
-0.286617	0.401879	0.409472	0.373006	-0.408969	-0.420361	-0.342286	0.383333	-0.298293	-0.37192	-0.391041	-0.345677	-0.413631	-0.355753	0.340714	0.324259	-0.35907	0.318673	0.248686	-0.374382	0.365874	0.252623	0.373662	0.329124	0.391555	-0.349598	0.322624	0.406006	0.401133	-0.353884	0.351375	-0.419075
-0.372848	0.479318	0.414891	0.429971	-0.497846	-0.469198	-0.408424	0.396413	-0.425572	-0.362293	-0.48115	-0.467388	-0.476393	-0.42537	0.469401	0.415113	-0.436696	0.480732	0.397364	-0.344475	0.448063	0.412415	0.430807	0.505398	0.47673	-0.418265	0.482313	0.379679	0.432511	-0.432986	0.366638	-0.403853
-0.356271	0.478003	0.398191	0.369156	-0.446798	-0.437322	-0.355701	0.461351	-0.363387	-0.187871	-0.409349	-0.391999	-0.438082	-0.471574	0.335666	0.430995	-0.413556	0.376881	0.268177	-0.369016	0.371614	0.338747	0.401396	0.421669	0.404171	-0.423026	0.417622	0.439735	0.462133	-0.426582	0.458642	-0.397579
-0.238659	0.396166	0.385603	0.541557	-0.506695	-0.473451	-0.450451	0.412728	-0.465269	-0.170185	-0.351627	-0.379849	-0.513029	-0.422555	0.403703	0.380822	-0.42284	0.416525	0.544662	-0.330473	0.414986	0.507692	0.545738	0.525123	0.421936	-0.365068	0.475156	0.43651	0.545546	-0.479185	0.546538	-0.503113
-0.443916	0.403278	0.449291	0.42742	-0.46614	-0.428542	-0.42837	0.401962	-0.430284	-0.341247	-0.487186	-0.450663	-0.445791	-0.418885	0.386334	0.40397	-0.461062	0.327927	0.331101	-0.415076	0.39284	0.494516	0.386447	0.490948	0.374398	-0.356542	0.402586	0.378021	0.404866	-0.385678	0.408877	-0.433461
-0.339001	0.38903	0.435795	0.387755	-0.527929	-0.382262	-0.505227	0.427748	-0.442729	-0.37763	-0.371014	-0.3806	-0.400918	-0.489436	0.38476	0.39243	-0.488961	0.423867	0.230954	-0.469639	0.486468	0.321688	0.429761	0.410286	0.392497	-0.403239	0.366801	0.465984	0.42059	-0.391127	0.453875	-0.382895
-0.436428	0.396874	0.438414	0.424416	-0.375039	-0.407652	-0.404598	0.404283	-0.444675	-0.403954	-0.434138	-0.438788	-0.445509	-0.428467	0.43702	0.406387	-0.472057	0.335054	0.227663	-0.480968	0.389134	0.410786	0.337672	0.431262	0.426761	-0.388446	0.418085	0.285074	0.42705	-0.44945	0.455938	-0.379747
-0.377818	0.448313	0.47015	0.467118	-0.406475	-0.392569	-0.389178	0.367445	-0.401285	-0.326322	-0.42742	-0.397686	-0.40487	-0.441458	0.442251	0.409806	-0.386947	0.402772	0.473547	-0.277555	0.444943	0.432615	0.405264	0.428965	0.441479	-0.441074	0.423658	0.364371	0.381767	-0.453456	0.413589	-0.43287
-0.3409	0.350435	0.410251	0.333704	-0.456225	-0.377096	-0.433864	0.352696	-0.408791	-0.394441	-0.415469	-0.430807	-0.427017	-0.396972	0.440375	0.415468	-0.441832	0.313343	0.415352	-0.292926	0.391844	0.384158	0.411808	0.410827	0.45652	-0.370298	0.381246	0.466661	0.392966	-0.428536	0.457921	-0.375392
-0.36176	0.439731	0.425891	0.416094	-0.401462	-0.406981	-0.347865	0.374751	-0.35352	-0.514998	-0.422498	-0.462659	-0.470265	-0.411353	0.395576	0.387562	-0.396005	0.334912	0.345159	-0.514228	0.404431	0.466193	0.353067	0.370499	0.406832	-0.449313	0.479513	0.285981	0.421418	-0.391014	0.34029	-0.455989
-0.564111	0.469129	0.341144	0.348138	-0.433762	-0.345195	-0.419461	0.471813	-0.300279	-0.639373	-0.305021	-0.434108	-0.341576	-0.423558	0.343419	0.43213	-0.378573	0.441634	0.294891	-0.124489	0.297646	0.544928	0.453248	0.277838	0.50077	-0.279818	0.407176	0.600769	0.376269	-0.279528	0.172204	-0.333681
-0.414898	0.411207	0.368872	0.357289	-0.371607	-0.414306	-0.409836	0.433578	-0.415693	-0.416921	-0.414883	-0.435219	-0.378813	-0.363515	0.38462	0.394398	-0.383308	0.264955	0.332404	-0.356725	0.434981	0.3897	0.453206	0.371272	0.371329	-0.416742	0.376864	0.311044	0.392396	-0.389201	0.334931	-0.387913
-0.429876	0.386219	0.402173	0.403637	-0.46864	-0.399665	-0.348404	0.425732	-0.383711	-0.174222	-0.444418	-0.392321	-0.465889	-0.45031	0.467497	0.462268	-0.470154	0.398686	0.619344	-0.409721	0.498289	0.312941	0.465058	0.386907	0.44351	-0.392358	0.371656	0.213981	0.411821	-0.457748	0.336677	-0.404439
-0.348807	0.462977	0.383782	0.342215	-0.365022	-0.459872	-0.442241	0.372938	-0.409905	-0.313095	-0.470201	-0.439327	-0.425945	-0.451417	0.381041	0.472529	-0.403439	0.356645	0.44849	-0.331891	0.387888	0.412715	0.386325	0.390254	0.411657	-0.448893	0.438153	0.372841	0.366956	-0.424991	0.352919	-0.460607
-0.404959	0.465033	0.400142	0.480117	-0.401703	-0.403702	-0.455987	0.397441	-0.467681	-0.362775	-0.385917	-0.442283	-0.488387	-0.418672	0.39546	0.394167	-0.453464	0.388758	0.399005	-0.39771	0.422352	0.315288	0.42024	0.431196	0.363669	-0.406598	0.504961	0.391148	0.444258	-0.433586	0.392422	-0.391982
-0.439124	0.387466	0.452007	0.374091	-0.40379	-0.396687	-0.444232	0.401314	-0.393878	-0.463325	-0.416101	-0.378691	-0.441818	-0.353241	0.406539	0.356918	-0.459917	0.439872	0.366368	-0.329108	0.364759	0.353905	0.363789	0.470331	0.344922	-0.327402	0.355337	0.272412	0.39933	-0.362818	0.374756	-0.407667
-0.404873	0.42974	0.396177	0.430268	-0.375341	-0.428612	-0.447546	0.363141	-0.410126	-0.493645	-0.484562	-0.471021	-0.383407	-0.375233	0.415235	0.446855	-0.47415	0.449608	0.587095	-0.327163	0.33264	0.480405	0.409989	0.399836	0.427636	-0.42181	0.459871	0.482667	0.415304	-0.462689	0.26872	-0.446273
-0.428841	0.502738	0.417136	0.378469	-0.361575	-0.453629	-0.41839	0.387515	-0.455002	-0.288244	-0.457671	-0.449734	-0.423089	-0.402506	0.454382	0.472	-0.48925	0.363931	0.345174	-0.440685	0.407967	0.435948	0.496116	0.459049	0.385833	-0.369958	0.402117	0.468368	0.401225	-0.415834	0.303087	-0.412037
-0.3774	0.421325	0.41131	0.388008	-0.379302	-0.393848	-0.377343	0.433615	-0.430195	-0.322403	-0.410647	-0.446471	-0.449759	-0.390071	0.42359	0.444263	-0.392788	0.352198	0.348946	-0.267191	0.399555	0.337412	0.40832	0.423348	0.429281	-0.397793	0.461569	0.298068	0.491572	-0.467968	0.446229	-0.407802
-0.472869	0.380606	0.383791	0.455584	-0.366966	-0.472273	-0.440262	0.366699	-0.437437	-0.314315	-0.400715	-0.428442	-0.40222	-0.410486	0.430202	0.357728	-0.471839	0.341668	0.42813	-0.366014	0.386528	0.4595	0.454235	0.410544	0.425625	-0.417171	0.385489	0.418265	0.425835	-0.428277	0.488765	-0.447456
-0.348357	0.390819	0.366129	0.277856	-0.315743	-0.405397	-0.38209	0.314663	-0.42884	-0.465856	-0.354168	-0.334615	-0.398487	-0.347083	0.309191	0.439009	-0.368398	0.442702	0.248959	-0.304718	0.387069	0.400454	0.312367	0.379739	0.443043	-0.317316	0.328325	0.241183	0.396669	-0.423174	0.255291	-0.355851
-0.429897	0.372849	0.379009	0.357645	-0.350003	-0.381831	-0.288599	0.423813	-0.348852	-0.271395	-0.411917	-0.449711	-0.316564	-0.403903	0.448939	0.39122	-0.387769	0.246985	0.372082	-0.122135	0.343416	0.30942	0.45922	0.348562	0.458665	-0.317367	0.382082	0.369266	0.379449	-0.357228	0.272216	-0.418893
-0.438986	0.356237	0.465548	0.426277	-0.466899	-0.359646	-0.427419	0.340228	-0.410699	-0.414073	-0.386876	-0.445245	-0.426328	-0.429384	0.477961	0.360538	-0.404107	0.492551	0.430452	-0.389996	0.372937	0.33924	0.425627	0.440056	0.447406	-0.436613	0.41368	0.450873	0.386583	-0.412593	0.333726	-0.451732
-0.398887	0.438112	0.362518	0.473339	-0.406352	-0.437485	-0.400514	0.4283	-0.438116	-0.433664	-0.44835	-0.383697	-0.415283	-0.434852	0.389324	0.437573	-0.454695	0.386546	0.466296	-0.389356	0.411124	0.351345	0.388035	0.452038	0.344448	-0.427034	0.401687	0.415233	0.40377	-0.351036	0.405045	-0.460112
-0.130474	0.262143	0.32269	0.373769	-0.410057	-0.432619	-0.496328	0.440548	-0.305628	-0.547973	-0.49438	-0.346182	-0.516663	-0.402374	0.514209	0.462132	-0.431049	0.164549	-0.164513	-0.12798	0.417415	0.44779	0.345187	0.436459	0.427641	-0.300474	0.400926	0.420512	0.282331	-0.436781	0.467009	-0.4083
-0.327012	0.372738	0.417615	0.41751	-0.314161	-0.411792	-0.376741	0.369664	-0.395366	-0.281844	-0.425462	-0.347916	-0.354797	-0.411289	0.346648	0.418045	-0.415605	0.302137	0.317228	-0.412128	0.410316	0.347804	0.461017	0.341186	0.40581	-0.423054	0.393384	0.403104	0.471923	-0.400744	0.393546	-0.327334
-0.387971	0.395185	0.425249	0.317239	-0.264751	-0.312966	-0.451481	0.366738	-0.428229	-0.413095	-0.399371	-0.372332	-0.449959	-0.434763	0.400772	0.388511	-0.449944	0.357004	0.252891	-0.452895	0.444538	0.375826	0.361523	0.417714	0.43411	-0.351477	0.415504	0.469596	0.365872	-0.389776	0.439207	-0.41544
-0.432894	0.432251	0.419052	0.434511	-0.385745	-0.425062	-0.331652	0.41697	-0.359986	-0.469184	-0.380929	-0.462611	-0.378067	-0.412999	0.381696	0.422616	-0.369823	0.315345	0.350239	-0.215113	0.35944	0.519618	0.449422	0.431514	0.453446	-0.358195	0.37885	0.466674	0.427214	-0.312847	0.186588	-0.397715
-0.417657	0.377246	0.365671	0.37749	-0.426502	-0.355769	-0.419355	0.343065	-0.395989	-0.423164	-0.382585	-0.388262	-0.3754	-0.377882	0.357348	0.44689	-0.45508	0.485861	0.32362	-0.437097	0.408355	0.320781	0.359408	0.333974	0.331958	-0.348945	0.376545	0.454059	0.400405	-0.391866	0.389046	-0.435154
-0.467515	0.466219	0.371361	0.392127	-0.371577	-0.493654	-0.340943	0.37128	-0.380529	-0.578334	-0.408938	-0.382986	-0.376748	-0.446632	0.386982	0.475329	-0.37975	0.430544	0.275979	-0.393595	0.362818	0.536011	0.438865	0.454041	0.494225	-0.345078	0.38989	0.508314	0.379344	-0.425584	0.235382	-0.371101
-0.355984	0.489598	0.429273	0.37959	-0.354157	-0.489233	-0.49899	0.444399	-0.390423	-0.252851	-0.497514	-0.470199	-0.48392	-0.446972	0.442642	0.429886	-0.47526	0.299152	0.504383	-0.3552	0.486223	0.42073	0.467108	0.484675	0.362642	-0.439175	0.393491	0.40142	0.465121	-0.499008	0.434379	-0.436599
-0.289059	0.39883	0.388626	0.478367	-0.417993	-0.308285	-0.487213	0.394624	-0.449273	-0.429957	-0.393843	-0.418269	-0.422692	-0.409514	0.444011	0.433994	-0.390302	0.41769	0.309134	-0.228137	0.413763	0.341785	0.338967	0.433005	0.450062	-0.448772	0.500454	0.492665	0.416394	-0.364647	0.457026	-0.339628
-0.372107	0.430615	0.340703	0.324444	-0.287288	-0.387199	-0.404512	0.31849	-0.372943	-0.337594	-0.397807	-0.355099	-0.420331	-0.360997	0.412134	0.323377	-0.448316	0.419366	0.338535	-0.350816	0.308896	0.422118	0.424852	0.369488	0.448152	-0.284532	0.410466	0.411729	0.40471	-0.387982	0.27503	-0.343739
-0.32094	0.413698	0.467459	0.337817	-0.417462	-0.409729	-0.402001	0.449804	-0.409849	-0.308993	-0.3546	-0.403963	-0.473929	-0.47632	0.363425	0.447515	-0.417624	0.40411	0.387492	-0.395073	0.385116	0.431819	0.406981	0.408767	0.501727	-0.42747	0.366555	0.334795	0.375821	-0.41396	0.424412	-0.456918
-0.162834	0.410399	0.394526	0.493412	-0.506646	-0.340244	-0.495197	0.523382	-0.389339	-0.545028	-0.352727	-0.463777	-0.445877	-0.462515	0.250861	0.315389	-0.348475	0.46642	-0.165706	-0.531924	0.322829	0.531417	0.2524	0.328828	0.368631	-0.406961	0.437195	0.299739	0.501082	-0.374351	0.253932	-0.412192
-0.410878	0.397071	0.4522	0.449103	-0.373062	-0.465755	-0.407889	0.347665	-0.35105	-0.472411	-0.350661	-0.352837	-0.44748	-0.363557	0.401749	0.355957	-0.411708	0.433236	-0.0831807	-0.369565	0.42154	0.448546	0.420522	0.439595	0.347644	-0.332404	0.410996	0.220672	0.380105	-0.461531	0.433731	-0.392882
-0.399358	0.247455	0.302179	0.483009	-0.397492	-0.25752	-0.385395	0.407193	-0.369395	-0.369407	-0.276594	-0.504861	-0.415451	-0.382627	0.407907	0.239477	-0.339138	0.344009	0.488417	-0.137297	0.523202	0.507413	0.304576	0.524472	0.200459	-0.283251	0.500766	0.636948	0.345249	-0.369234	0.525761	-0.38113
-0.466697	0.412036	0.450964	0.414313	-0.424178	-0.452487	-0.378299	0.469507	-0.525166	-0.427461	-0.468524	-0.399188	-0.483457	-0.435327	0.433401	0.478323	-0.450573	0.469433	0.386153	-0.429789	0.428681	0.505954	0.43229	0.484822	0.430659	-0.47362	0.470371	0.474245	0.373989	-0.449719	0.381492	-0.424553
-0.395986	0.480672	0.394049	0.393912	-0.401555	-0.369503	-0.393592	0.360237	-0.397693	-0.492781	-0.40081	-0.398753	-0.457239	-0.458822	0.374237	0.419253	-0.408941	0.437735	0.455935	-0.37546	0.427549	0.366632	0.405857	0.41674	0.417127	-0.436834	0.463988	0.453195	0.411924	-0.403676	0.479928	-0.453803
-0.352669	0.382127	0.385741	0.406393	-0.429374	-0.4327	-0.393603	0.344892	-0.414053	-0.373012	-0.439095	-0.417119	-0.391513	-0.452387	0.405067	0.370614	-0.400674	0.357914	0.399319	-0.355615	0.43666	0.393267	0.426727	0.422738	0.395178	-0.400703	0.448839	0.423918	0.41097	-0.441878	0.412779	-0.369441
-0.189253	0.326963	0.380063	0.256849	-0.320283	-0.288868	-0.257624	0.245712	-0.267006	-0.141414	-0.181192	-0.322603	-0.257158	-0.335747	0.313604	0.317156	-0.334777	0.348071	0.163636	-0.32389	0.260921	0.395226	0.264392	0.316231	0.348449	-0.402265	0.403419	0.388401	0.377231	-0.272123	0.213735	-0.37183
-0.389743	0.417805	0.399203	0.365011	-0.430207	-0.401393	-0.383201	0.329995	-0.443571	-0.397288	-0.353745	-0.451474	-0.377681	-0.352779	0.422431	0.422941	-0.412994	0.369766	0.432024	-0.285857	0.343058	0.343887	0.297924	0.439559	0.444385	-0.402	0.36041	0.415961	0.399022	-0.447348	0.350788	-0.389154
-0.499984	0.377087	0.39109	0.425131	-0.364849	-0.425949	-0.270949	0.404427	-0.374511	-0.443934	-0.378737	-0.397722	-0.367248	-0.485294	0.461223	0.428918	-0.384359	0.402661	0.48713	-0.158289	0.376881	0.442405	0.469732	0.402833	0.413984	-0.385343	0.406065	0.442299	0.414064	-0.406733	0.293822	-0.418319
-0.319638	0.373943	0.40605	0.483879	-0.426148	-0.400798	-0.463715	0.340462	-0.470309	-0.442169	-0.425901	-0.38268	-0.486546	-0.378241	0.403155	0.446141	-0.390148	0.393752	0.492815	-0.296687	0.425464	0.478664	0.393586	0.44656	0.382716	-0.392586	0.47602	0.494978	0.393535	-0.44938	0.478513	-0.421906
-0.421394	0.427821	0.426793	0.463577	-0.363706	-0.494356	-0.444419	0.333659	-0.407771	-0.399047	-0.390521	-0.388573	-0.415228	-0.408785	0.391535	0.356821	-0.476571	0.313642	0.428266	-0.488745	0.394968	0.343158	0.448348	0.454965	0.456162	-0.383969	0.445025	0.356582	0.417829	-0.470784	0.364569	-0.441554
-0.368196	0.398096	0.482028	0.403195	-0.38041	-0.42406	-0.498033	0.435151	-0.366766	-0.355753	-0.410911	-0.37071	-0.422266	-0.460734	0.398182	0.457228	-0.43368	0.362947	0.462026	-0.360902	0.459762	0.452887	0.458264	0.371033	0.514154	-0.442633	0.445734	0.41441	0.398191	-0.407043	0.326119	-0.451952
-0.306034	0.429476	0.33285	0.299113	-0.426458	-0.270842	-0.365434	0.384012	-0.403925	-0.261171	-0.301969	-0.408374	-0.35761	-0.392044	0.375637	0.341369	-0.390619	0.309814	0.460229	-0.348843	0.441721	0.315339	0.376207	0.360813	0.343311	-0.407407	0.428331	0.270112	0.423783	-0.363342	0.326729	-0.360925
-0.335466	0.323496	0.319464	0.459231	-0.348478	-0.467525	-0.362393	0.375066	-0.416183	-0.347731	-0.394704	-0.430129	-0.454647	-0.44482	0.367887	0.41609	-0.37592	0.34211	0.13467	-0.320291	0.388771	0.347295	0.329984	0.398712	0.491914	-0.345007	0.352326	0.169931	0.398615	-0.375644	0.339758	-0.417598
-0.21799	0.29482	0.23731	0.261499	-0.247223	-0.259793	-0.250333	0.204711	-0.249199	-0.339585	-0.214279	-0.173418	-0.242977	-0.171759	0.230643	0.264347	-0.20428	0.166004	0.131412	-0.144189	0.169216	0.159618	0.210736	0.215885	0.220467	-0.244338	0.223384	0.164657	0.269886	-0.243206	0.179266	-0.190814
-0.438337	0.382343	0.365385	0.321071	-0.377314	-0.34637	-0.317094	0.389559	-0.437952	-0.353399	-0.338655	-0.430322	-0.441529	-0.325481	0.416345	0.406655	-0.389104	0.432193	0.381158	-0.416005	0.33151	0.359484	0.390444	0.409654	0.392345	-0.328347	0.370504	0.340915	0.290062	-0.371591	0.253477	-0.357877
-0.332715	0.351503	0.43666	0.458891	-0.406861	-0.448815	-0.37172	0.369545	-0.449731	-0.435165	-0.410568	-0.420953	-0.360304	-0.422503	0.402142	0.354509	-0.392599	0.399268	0.406831	-0.320996	0.433735	0.426674	0.380662	0.413907	0.341727	-0.370398	0.456601	0.402298	0.427272	-0.3661	0.284057	-0.347461
-0.387313	0.244451	0.377402	0.416737	-0.308521	-0.344482	-0.285404	0.297474	-0.262803	-0.482659	-0.259051	-0.321458	-0.404164	-0.402103	0.289831	0.328769	-0.342569	0.295648	0.19006	-0.578712	0.298972	0.428624	0.32076	0.273661	0.33929	-0.40437	0.307979	0.513606	0.382454	-0.384336	0.20273	-0.396888
-0.431913	0.377927	0.426934	0.443858	-0.387329	-0.432286	-0.336427	0.426658	-0.432921	-0.387937	-0.345856	-0.399757	-0.402833	-0.432034	0.357089	0.428273	-0.374764	0.43786	0.440819	-0.390579	0.332919	0.282508	0.336277	0.402405	0.368967	-0.414535	0.436592	0.304687	0.391079	-0.377772	0.462381	-0.337677
-0.412453	0.421174	0.398308	0.458683	-0.400439	-0.409017	-0.442229	0.392927	-0.426319	-0.2541	-0.366861	-0.476696	-0.332326	-0.482326	0.358378	0.424329	-0.348971	0.371084	0.315524	-0.335842	0.383005	0.379451	0.429955	0.344073	0.361027	-0.435604	0.376738	0.444987	0.406417	-0.32429	0.418224	-0.360602
-0.364294	0.405425	0.370389	0.521737	-0.334766	-0.333324	-0.531314	0.279363	-0.486459	-0.167842	-0.562232	-0.410774	-0.372024	-0.463033	0.474332	0.444091	-0.418584	0.554722	0.358893	-0.496881	0.301462	0.392394	0.545627	0.499143	0.406063	-0.396571	0.405222	0.294833	0.496414	-0.400752	0.279068	-0.390259
-0.236897	0.368867	0.41119	0.343796	-0.342988	-0.29179	-0.467901	0.335912	-0.379344	-0.436496	-0.307786	-0.401443	-0.406905	-0.388285	0.399917	0.313011	-0.411889	0.441024	0.48772	-0.270949	0.380791	0.258408	0.330588	0.366066	0.411033	-0.331334	0.389494	0.39275	0.340128	-0.351084	0.295947	-0.31768
-0.247168	0.31088	0.385249	0.305356	-0.472527	-0.40437	-0.418019	0.377354	-0.360956	-0.339902	-0.432327	-0.374393	-0.308749	-0.321589	0.384884	0.262318	-0.38461	0.351203	0.293855	-0.233192	0.333604	0.356703	0.366415	0.401385	0.375133	-0.36279	0.343364	0.320472	0.401485	-0.306356	0.412552	-0.346414
-0.37818	0.369724	0.423861	0.41035	-0.391891	-0.452952	-0.462455	0.425624	-0.440306	-0.423151	-0.40804	-0.418634	-0.446028	-0.328336	0.431795	0.34358	-0.35913	0.375409	0.198281	-0.532447	0.414077	0.290006	0.386125	0.384814	0.336826	-0.435505	0.40233	0.325295	0.457874	-0.376779	0.416456	-0.3577
-0.332735	0.404789	0.459263	0.467119	-0.458288	-0.407968	-0.486939	0.475844	-0.416648	-0.309505	-0.450192	-0.424232	-0.452718	-0.455378	0.395447	0.375265	-0.452227	0.39828	0.487977	-0.331252	0.386238	0.42354	0.390443	0.479907	0.408445	-0.442371	0.481554	0.48298	0.424912	-0.409537	0.407157	-0.434216
-0.461456	0.370281	0.427154	0.367952	-0.42018	-0.391282	-0.392139	0.46933	-0.39045	-0.35732	-0.369159	-0.4312	-0.403841	-0.403072	0.400838	0.412895	-0.484968	0.350445	0.423781	-0.428229	0.469084	0.41526	0.384667	0.465286	0.425364	-0.379706	0.452325	0.44691	0.350157	-0.42187	0.355673	-0.430965
-0.505778	0.273688	0.441332	0.453895	-0.46898	-0.382779	-0.335525	0.381369	-0.413417	-0.400492	-0.436142	-0.415601	-0.423548	-0.437313	0.439076	0.459841	-0.3717	0.399241	0.54753	-0.378207	0.428056	0.3903	0.457563	0.454478	0.443013	-0.407831	0.531997	0.421839	0.314566	-0.420964	0.131312	-0.427063
-0.411087	0.418537	0.441083	0.378563	-0.403303	-0.38377	-0.441937	0.42158	-0.426824	-0.325251	-0.412697	-0.376734	-0.411707	-0.40885	0.407042	0.447114	-0.363052	0.424842	0.144702	-0.441391	0.421102	0.351527	0.387312	0.420765	0.363832	-0.43661	0.366307	0.332603	0.461171	-0.380551	0.42919	-0.431003
-0.439219	0.459581	0.43914	0.445359	-0.481493	-0.401404	-0.461104	0.471885	-0.43261	-0.532639	-0.498293	-0.449598	-0.433263	-0.386483	0.439312	0.486457	-0.394718	0.357202	0.410854	-0.412802	0.415845	0.397642	0.470538	0.414145	0.461171	-0.478542	0.420943	0.489937	0.457989	-0.454144	0.327405	-0.488553
-0.372206	0.246485	0.333157	0.23891	-0.394672	-0.261906	-0.259204	0.270926	-0.334709	-0.324863	-0.41192	-0.332207	-0.37442	-0.342924	0.234506	0.291212	-0.390737	0.144302	0.293709	-0.210487	0.292295	0.193407	0.28029	0.263292	0.347147	-0.313238	0.292235	0.235174	0.265183	-0.262324	0.32324	-0.334504
-0.365169	0.435984	0.41823	0.446	-0.517416	-0.488167	-0.514747	0.37073	-0.450784	-0.320805	-0.46439	-0.479911	-0.40595	-0.500065	0.46718	0.394337	-0.421965	0.436422	0.628381	-0.444615	0.459839	0.498017	0.491196	0.383188	0.335867	-0.417548	0.376962	0.343145	0.40933	-0.417834	0.412386	-0.45697
-0.3743	0.437694	0.451101	0.336719	-0.371654	-0.405943	-0.384146	0.456628	-0.404668	-0.374961	-0.384788	-0.359085	-0.473699	-0.455916	0.380067	0.446772	-0.397238	0.443992	0.379265	-0.360968	0.417122	0.423161	0.381422	0.441744	0.385702	-0.385157	0.397804	0.379398	0.459476	-0.388011	0.452221	-0.464552
-0.357902	0.332494	0.402857	0.391488	-0.441255	-0.308956	-0.366246	0.337796	-0.354978	-0.35875	-0.44221	-0.419168	-0.403623	-0.421354	0.364363	0.406124	-0.406001	0.366715	0.31956	-0.402708	0.404192	0.444272	0.377235	0.373	0.375237	-0.443437	0.359356	0.329883	0.435898	-0.370653	0.358841	-0.343087
-0.389084	0.214468	0.306939	0.302753	-0.288294	-0.271963	-0.24092	0.261573	-0.334784	-0.455768	-0.348852	-0.37128	-0.293348	-0.307848	0.194917	0.218699	-0.26827	0.289892	0.0179358	-0.153894	0.199592	0.142625	0.302851	0.273039	0.345916	-0.259358	0.402695	0.232414	0.246171	-0.242762	0.242589	-0.194529
-0.39701	0.325846	0.329834	0.2478	-0.320631	-0.261765	-0.193736	0.272138	-0.307258	-0.446617	-0.322731	-0.299602	-0.287031	-0.177742	0.29902	0.265374	-0.194391	0.356406	0.142414	-0.242428	0.250554	0.268627	0.358463	0.302179	0.322415	-0.336019	0.350668	0.0302427	0.194336	-0.322113	0.181842	-0.280711
-0.378411	0.341217	0.331557	0.386936	-0.344191	-0.256775	-0.390245	0.325051	-0.33595	-0.367698	-0.340858	-0.320908	-0.270643	-0.259363	0.247802	0.316125	-0.268001	0.291933	0.436785	-0.403299	0.268476	0.438561	0.224655	0.371276	0.284321	-0.238771	0.369718	0.350584	0.362122	-0.355573	0.291793	-0.284457
-0.39967	0.40435	0.354357	0.413548	-0.364576	-0.418583	-0.444319	0.415589	-0.431281	-0.412312	-0.376157	-0.344779	-0.463759	-0.419743	0.445705	0.408419	-0.383955	0.390306	0.508773	-0.388717	0.334404	0.403401	0.3991	0.471857	0.351755	-0.371919	0.444759	0.433023	0.348954	-0.447732	0.378222	-0.354486
-0.252554	0.39368	0.390673	0.408462	-0.468338	-0.450791	-0.363191	0.44984	-0.394764	-0.215384	-0.496336	-0.405293	-0.442775	-0.424068	0.384736	0.437559	-0.438113	0.397086	0.561699	-0.342578	0.364288	0.395843	0.41391	0.442052	0.411768	-0.402153	0.415647	0.401581	0.466467	-0.490071	0.521358	-0.425796
-0.456556	0.427177	0.452151	0.482334	-0.430937	-0.40678	-0.451609	0.474768	-0.510222	-0.380391	-0.428277	-0.535143	-0.473585	-0.531265	0.422062	0.480017	-0.477786	0.352584	0.442004	-0.457675	0.494411	0.424563	0.402357	0.400369	0.391039	-0.470999	0.43263	0.269342	0.421031	-0.41027	0.461171	-0.471861
-0.342371	0.444427	0.333855	0.451867	-0.432125	-0.419347	-0.392553	0.400865	-0.348089	-0.304644	-0.35465	-0.39815	-0.399753	-0.42293	0.432387	0.481222	-0.370403	0.405395	0.385399	-0.36095	0.367388	0.442012	0.466524	0.456161	0.379325	-0.344187	0.361659	0.432645	0.458403	-0.423204	0.54996	-0.452088
-0.452748	0.454561	0.442594	0.445646	-0.429033	-0.415055	-0.455769	0.437277	-0.439353	-0.455281	-0.515565	-0.501356	-0.491514	-0.407192	0.477932	0.469358	-0.431881	0.397773	0.384485	-0.49435	0.442329	0.443618	0.470502	0.456566	0.516986	-0.428268	0.458412	0.42847	0.428159	-0.454667	0.375091	-0.485211
-0.426772	0.383852	0.376439	0.417568	-0.431177	-0.446211	-0.44751	0.356131	-0.480813	-0.496514	-0.386338	-0.307308	-0.47249	-0.448212	0.442234	0.403623	-0.422748	0.497385	0.249452	-0.547582	0.358765	0.457848	0.482857	0.421579	0.382455	-0.485896	0.376479	0.35353	0.419308	-0.450852	0.301787	-0.354268
-0.340147	0.364732	0.385753	0.45264	-0.31853	-0.389297	-0.458493	0.42104	-0.426703	-0.263537	-0.380863	-0.425695	-0.468403	-0.414672	0.451541	0.421164	-0.451115	0.281417	0.449592	-0.48051	0.422004	0.458915	0.4216	0.428034	0.437475	-0.471799	0.488526	0.280234	0.432394	-0.436141	0.4804	-0.387843
-0.47104	0.430465	0.467304	0.46428	-0.413242	-0.368805	-0.488407	0.438858	-0.384606	-0.304398	-0.406879	-0.416775	-0.421141	-0.416141	0.483235	0.421926	-0.440235	0.392325	0.383882	-0.485207	0.422113	0.26679	0.410763	0.457838	0.415281	-0.413341	0.490351	0.399246	0.393399	-0.421423	0.49437	-0.414515
-0.245085	0.488771	0.409237	0.309333	-0.281374	-0.297412	-0.345311	0.34496	-0.3743	-0.513946	-0.402251	-0.377676	-0.351327	-0.339803	0.30929	0.295261	-0.315183	0.354439	0.532864	-0.149572	0.289902	0.358371	0.403077	0.434228	0.412873	-0.25897	0.354489	0.420892	0.434034	-0.374675	0.304098	-0.453508
-0.362221	0.393787	0.419136	0.402021	-0.415025	-0.416328	-0.472818	0.355835	-0.355571	-0.333012	-0.426489	-0.381751	-0.414818	-0.394458	0.440381	0.42284	-0.392556	0.354822	0.438913	-0.409628	0.350788	0.29204	0.405303	0.371109	0.413819	-0.48101	0.371993	0.299654	0.34525	-0.389814	0.381781	-0.363831
-0.318439	0.366859	0.469457	0.408488	-0.342174	-0.388164	-0.3094	0.38481	-0.275925	-0.537727	-0.384668	-0.368885	-0.405888	-0.285863	0.314061	0.44402	-0.230221	0.267508	0.490466	-0.281797	0.340068	0.470828	0.286975	0.412858	0.498204	-0.36103	0.487155	0.555704	0.375522	-0.376216	0.0926184	-0.393285
-0.409501	0.433076	0.380753	0.326003	-0.463903	-0.390319	-0.45505	0.347079	-0.368011	-0.434671	-0.327705	-0.423917	-0.456144	-0.383466	0.39673	0.406855	-0.432292	0.382129	0.455821	-0.446098	0.426245	0.362484	0.348778	0.396285	0.47099	-0.401237	0.416201	0.303292	0.347915	-0.454638	0.420238	-0.467581
-0.336617	0.279257	0.348638	0.451933	-0.387834	-0.366143	-0.487431	0.299242	-0.457302	-0.513694	-0.435545	-0.36099	-0.290455	-0.392151	0.35044	0.300799	-0.414139	0.370056	0.450493	-0.462856	0.414199	0.498414	0.33104	0.411217	0.360999	-0.419997	0.289824	0.328968	0.354604	-0.420995	0.401768	-0.323977
-0.422138	0.29086	0.449271	0.348166	-0.317763	-0.396877	-0.284877	0.31823	-0.447523	-0.288014	-0.28998	-0.407675	-0.390356	-0.500852	0.409335	0.380806	-0.391972	0.437294	0.359083	-0.482921	0.446086	0.435523	0.42136	0.417617	0.294267	-0.377411	0.390094	0.345454	0.4141	-0.402226	0.456217	-0.33285
-0.468006	0.360616	0.38739	0.448382	-0.396347	-0.44081	-0.353479	0.433464	-0.403952	-0.404602	-0.437837	-0.400831	-0.418598	-0.441658	0.439894	0.47107	-0.465718	0.453157	0.529925	-0.361212	0.379668	0.472978	0.501018	0.433489	0.43208	-0.46134	0.422954	0.443246	0.41317	-0.436188	0.466594	-0.417138
-0.2477	0.27893	0.288387	0.291639	-0.387344	-0.286641	-0.275554	0.348915	-0.262648	-0.245415	-0.350436	-0.315598	-0.346138	-0.335875	0.35803	0.372516	-0.317981	0.340399	0.345792	-0.279894	0.336506	0.350993	0.197712	0.346859	0.356524	-0.2651	0.335144	0.374592	0.325558	-0.335188	0.214971	-0.326158
-0.3839	0.343574	0.354155	0.437025	-0.286434	-0.344398	-0.371414	0.364975	-0.390306	-0.487208	-0.401396	-0.429948	-0.409314	-0.332749	0.337197	0.436614	-0.259829	0.243031	0.490662	-0.135932	0.27637	0.474452	0.372237	0.383953	0.469644	-0.322108	0.438458	0.552248	0.339882	-0.27905	0.10255	-0.378927
-0.459546	0.40664	0.41426	0.448137	-0.459737	-0.348522	-0.426814	0.358102	-0.385798	-0.367135	-0.397145	-0.396	-0.367833	-0.359063	0.432535	0.430987	-0.395847	0.301016	0.466666	-0.342879	0.414391	0.33788	0.436177	0.403284	0.364534	-0.348141	0.445674	0.454187	0.409568	-0.432365	0.397996	-0.447963
-0.43869	0.464121	0.473355	0.404198	-0.483693	-0.389782	-0.44896	0.37209	-0.462786	-0.427816	-0.441519	-0.439036	-0.418559	-0.401351	0.450741	0.397671	-0.416909	0.337944	0.504462	-0.425976	0.399735	0.414917	0.46448	0.38462	0.389939	-0.432431	0.428053	0.455805	0.390616	-0.380964	0.461683	-0.473284
-0.465479	0.446683	0.46891	0.396883	-0.404413	-0.485769	-0.377694	0.378972	-0.483789	-0.374775	-0.482026	-0.387281	-0.437072	-0.476694	0.478953	0.422871	-0.407604	0.387407	0.411317	-0.442311	0.44855	0.339879	0.479426	0.390442	0.444697	-0.433291	0.433988	0.437094	0.51801	-0.410617	0.509572	-0.457448
-0.315779	0.449184	0.466177	0.385074	-0.421478	-0.356069	-0.400994	0.356269	-0.482329	-0.383484	-0.377864	-0.456625	-0.44559	-0.475378	0.459403	0.412467	-0.388827	0.349543	0.510523	-0.265442	0.371008	0.388832	0.40594	0.48612	0.469646	-0.36475	0.407162	0.419764	0.458184	-0.43181	0.461369	-0.383167
-0.581317	0.542681	0.32675	0.49393	-0.277826	-0.426111	-0.270183	0.283732	-0.510776	-0.358608	-0.387093	-0.536476	-0.457019	-0.475505	0.292745	0.400768	-0.406142	0.335571	0.550547	-0.561775	0.321607	0.502905	0.234076	0.384451	0.175357	-0.450973	0.432142	0.243203	0.379894	-0.265383	0.551131	-0.345907
-0.399243	0.354615	0.448795	0.36232	-0.45738	-0.348665	-0.4096	0.415384	-0.359077	-0.438201	-0.380854	-0.406394	-0.398372	-0.332075	0.352141	0.362261	-0.387713	0.337378	0.448493	-0.46209	0.393177	0.324354	0.350602	0.459004	0.320716	-0.372436	0.379276	0.330951	0.39998	-0.371172	0.379362	-0.392554
-0.41573	0.290753	0.384141	0.314898	-0.361149	-0.375294	-0.455652	0.425389	-0.403183	-0.380655	-0.365592	-0.44269	-0.443398	-0.322251	0.330309	0.429805	-0.346369	0.283813	0.380435	-0.258682	0.448879	0.338301	0.395977	0.375851	0.438239	-0.443419	0.342044	0.265386	0.411922	-0.413547	0.414024	-0.371346
-0.329774	0.411037	0.416604	0.417326	-0.340778	-0.352374	-0.311672	0.287544	-0.343045	-0.16375	-0.364426	-0.378307	-0.402819	-0.355287	0.282318	0.300905	-0.38405	0.31538	0.435996	-0.33143	0.425317	0.442307	0.328502	0.343795	0.393807	-0.368724	0.375963	0.350737	0.395434	-0.345888	0.264152	-0.376321
-0.345767	0.378674	0.402313	0.423751	-0.334791	-0.390531	-0.327941	0.333361	-0.357795	-0.34887	-0.366375	-0.403605	-0.414656	-0.376788	0.399036	0.355498	-0.332271	0.333153	0.319057	-0.397089	0.399194	0.354331	0.329081	0.335354	0.369768	-0.40484	0.343722	0.328753	0.379278	-0.332873	0.368493	-0.410927
-0.314535	0.383962	0.397683	0.356182	-0.414353	-0.359297	-0.485645	0.452545	-0.383737	-0.291021	-0.453645	-0.407053	-0.463169	-0.427281	0.441941	0.488832	-0.457811	0.387474	0.459613	-0.406201	0.394913	0.417407	0.435637	0.391246	0.386745	-0.35765	0.355363	0.300985	0.418693	-0.471364	0.392262	-0.473256
-0.370209	0.426244	0.344973	0.330708	-0.39518	-0.444515	-0.388897	0.411875	-0.443856	-0.283544	-0.397083	-0.403633	-0.42652	-0.385884	0.336964	0.404785	-0.449022	0.340707	0.396814	-0.317636	0.420172	0.366368	0.379776	0.450691	0.368856	-0.399748	0.452643	0.35277	0.389329	-0.386036	0.374408	-0.433095
-0.361851	0.423032	0.37262	0.415878	-0.486182	-0.354971	-0.286246	0.470816	-0.466901	-0.541624	-0.456337	-0.441106	-0.478871	-0.455034	0.393411	0.479394	-0.380077	0.335248	0.600138	-0.421456	0.453536	0.403082	0.408766	0.380994	0.429537	-0.501275	0.375075	0.417453	0.387862	-0.420899	0.471829	-0.464338
-0.435544	0.432603	0.437386	0.367054	-0.423122	-0.385265	-0.380724	0.424063	-0.437281	-0.546851	-0.442108	-0.344027	-0.405826	-0.385276	0.348162	0.421055	-0.437662	0.475542	0.501407	-0.315981	0.407365	0.39728	0.415307	0.386446	0.384538	-0.392519	0.450998	0.375493	0.348431	-0.391722	0.34451	-0.422262
-0.364879	0.39175	0.387455	0.404731	-0.384059	-0.401271	-0.445451	0.35314	-0.403872	-0.370089	-0.396201	-0.399321	-0.437423	-0.464609	0.397514	0.402373	-0.357941	0.325636	0.28526	-0.38061	0.412771	0.304011	0.358179	0.456333	0.476012	-0.41535	0.461007	0.318547	0.338262	-0.369679	0.374276	-0.407761
-0.326046	0.352732	0.423721	0.434802	-0.472202	-0.499347	-0.462998	0.420441	-0.497176	-0.429216	-0.489592	-0.361503	-0.480642	-0.419965	0.486277	0.476725	-0.46791	0.420324	0.304984	-0.413448	0.409418	0.494311	0.417477	0.361444	0.40802	-0.499031	0.442025	0.337916	0.475096	-0.383357	0.456405	-0.355447
-0.43227	0.39792	0.388721	0.45971	-0.381023	-0.398018	-0.431845	0.389968	-0.447994	-0.500542	-0.425043	-0.387644	-0.437436	-0.428673	0.421399	0.406699	-0.470439	0.416115	0.263343	-0.525697	0.345801	0.428266	0.452323	0.466287	0.446003	-0.412172	0.460212	0.402323	0.407634	-0.409036	0.433986	-0.455564
-0.472847	0.4215	0.409167	0.398466	-0.393854	-0.413763	-0.385674	0.357351	-0.38192	-0.450206	-0.394952	-0.356761	-0.427724	-0.336282	0.40609	0.385923	-0.383409	0.342309	0.335444	-0.268583	0.396339	0.433246	0.389918	0.345817	0.490503	-0.40932	0.372563	0.491159	0.409144	-0.340755	0.285222	-0.422517
-0.331359	0.460992	0.493296	0.483883	-0.528173	-0.499879	-0.432029	0.428489	-0.461975	-0.410114	-0.387061	-0.391378	-0.493051	-0.411539	0.434563	0.466515	-0.389881	0.395528	0.285264	-0.403179	0.451937	0.342517	0.384858	0.398006	0.456666	-0.42981	0.508112	0.374569	0.3913	-0.451024	0.463626	-0.407165
-0.392905	0.384485	0.385822	0.33382	-0.303118	-0.370816	-0.468001	0.343373	-0.390134	-0.219949	-0.445834	-0.436323	-0.355028	-0.479211	0.435714	0.436386	-0.406878	0.411603	0.269156	-0.437782	0.387894	0.324189	0.497015	0.332558	0.458408	-0.465843	0.378325	0.358756	0.374383	-0.374209	0.448579	-0.394107
-0.360586	0.392894	0.433319	0.395789	-0.469437	-0.449784	-0.413025	0.415962	-0.420579	-0.324992	-0.447656	-0.472974	-0.463009	-0.37101	0.41093	0.465876	-0.410797	0.36906	0.387567	-0.325219	0.374993	0.345635	0.334851	0.431135	0.386525	-0.399957	0.468087	0.383228	0.424206	-0.467234	0.427595	-0.409581
-0.364412	0.363447	0.306699	0.380492	-0.290901	-0.360952	-0.385753	0.303733	-0.352949	-0.237909	-0.423887	-0.422157	-0.370002	-0.323607	0.335516	0.425114	-0.336991	0.421155	0.257167	-0.229694	0.346463	0.428187	0.324711	0.357492	0.383786	-0.433816	0.426684	0.39606	0.3241	-0.268914	0.361089	-0.336974
-0.344221	0.452869	0.459565	0.440319	-0.400775	-0.413956	-0.407392	0.452112	-0.473784	-0.319092	-0.477826	-0.436696	-0.468522	-0.422401	0.447617	0.447682	-0.395829	0.371343	0.578864	-0.296824	0.417411	0.444031	0.458282	0.397892	0.410937	-0.442377	0.462948	0.408984	0.501422	-0.483108	0.388708	-0.398067
-0.363409	0.406729	0.335385	0.342921	-0.406851	-0.407158	-0.357293	0.398864	-0.356951	-0.385652	-0.35362	-0.363534	-0.367784	-0.401361	0.331187	0.414372	-0.338146	0.411085	0.312107	-0.444384	0.355613	0.375166	0.313151	0.348885	0.359879	-0.376935	0.438411	0.3785	0.341472	-0.362396	0.250101	-0.340545
-0.429553	0.468996	0.49211	0.427048	-0.473109	-0.368206	-0.432726	0.465816	-0.430358	-0.225816	-0.476112	-0.458941	-0.470191	-0.488069	0.423547	0.411461	-0.417599	0.342836	0.480743	-0.380653	0.511406	0.489462	0.424531	0.515028	0.471957	-0.447938	0.401326	0.40121	0.398603	-0.445496	0.406215	-0.430929
-0.335993	0.45967	0.475361	0.43402	-0.37973	-0.392159	-0.474085	0.457101	-0.510284	-0.338812	-0.434939	-0.436659	-0.480795	-0.495071	0.4333	0.497409	-0.475055	0.336773	0.43382	-0.381831	0.508743	0.465204	0.457	0.415916	0.425476	-0.375643	0.400342	0.397214	0.389668	-0.505119	0.456726	-0.502527
-0.416717	0.330207	0.451827	0.463374	-0.458685	-0.412452	-0.357554	0.414847	-0.39251	-0.460606	-0.442782	-0.357015	-0.409743	-0.382386	0.444388	0.373198	-0.450715	0.361231	0.253836	-0.489128	0.384717	0.375151	0.477732	0.375445	0.461089	-0.403832	0.454698	0.393783	0.436066	-0.455025	0.355348	-0.437123
-0.355878	0.338066	0.403784	0.345118	-0.240454	-0.363304	-0.368985	0.252427	-0.40156	-0.502681	-0.270928	-0.446596	-0.421816	-0.380013	0.281408	0.3831	-0.305059	0.299513	0.39608	-0.319611	0.352017	0.442217	0.277226	0.408693	0.427137	-0.290289	0.396305	0.603336	0.266603	-0.293835	0.235315	-0.338638
-0.324522	0.471364	0.33853	0.356826	-0.400293	-0.339431	-0.542713	0.274073	-0.342263	-0.399367	-0.372861	-0.428811	-0.357406	-0.536468	0.381812	0.310018	-0.299563	0.606367	0.359502	-0.304257	0.389836	0.493315	0.470253	0.440148	0.433459	-0.340587	0.322652	0.341625	0.430423	-0.332389	0.094838	-0.38778
-0.35943	0.307011	0.379841	0.42673	-0.394211	-0.3956	-0.387484	0.346584	-0.391589	-0.42207	-0.406712	-0.346028	-0.419046	-0.38553	0.435995	0.396599	-0.420755	0.309638	0.290272	-0.368312	0.383436	0.45194	0.406512	0.436805	0.403501	-0.433318	0.402308	0.340306	0.445223	-0.417984	0.427855	-0.341994
-0.315085	0.382521	0.373121	0.378656	-0.352797	-0.329766	-0.419697	0.292346	-0.32763	-0.388537	-0.37099	-0.392181	-0.414161	-0.294316	0.35368	0.420632	-0.293535	0.373818	0.361164	-0.252861	0.335823	0.363823	0.348088	0.398983	0.378623	-0.374309	0.34458	0.410235	0.372574	-0.282356	0.338393	-0.375133
-0.423855	0.343077	0.391351	0.379919	-0.376911	-0.328843	-0.394138	0.395593	-0.364546	-0.400068	-0.421738	-0.417641	-0.374266	-0.39399	0.404804	0.349407	-0.425207	0.328152	0.380151	-0.242164	0.353556	0.378257	0.352506	0.298008	0.436613	-0.351361	0.367552	0.425622	0.375117	-0.389265	0.387003	-0.342733
-0.399186	0.462897	0.429384	0.421287	-0.338571	-0.422965	-0.532403	0.428872	-0.426147	-0.46175	-0.412948	-0.44174	-0.500097	-0.490102	0.505922	0.42382	-0.445689	0.469531	0.370518	-0.415705	0.490878	0.396884	0.426282	0.498549	0.4806	-0.493405	0.395872	0.447403	0.471625	-0.489156	0.462527	-0.400492
-0.408009	0.417146	0.356333	0.459139	-0.462872	-0.337053	-0.33837	0.349396	-0.401248	-0.428343	-0.358699	-0.421294	-0.459026	-0.433743	0.435606	0.448346	-0.363743	0.386631	0.364602	-0.411089	0.347623	0.383429	0.370524	0.381887	0.428743	-0.453017	0.36697	0.328079	0.428561	-0.385834	0.342405	-0.376376
-0.365106	0.383787	0.4569	0.380456	-0.447007	-0.417942	-0.386403	0.461332	-0.376753	-0.400431	-0.460174	-0.362184	-0.449542	-0.388091	0.443171	0.45935	-0.416527	0.369991	0.512324	-0.303078	0.390467	0.365861	0.394673	0.417016	0.333691	-0.332696	0.462659	0.499372	0.460373	-0.480184	0.356423	-0.386495
-0.337732	0.292473	0.361063	0.385001	-0.437689	-0.385294	-0.302946	0.436837	-0.343488	-0.300117	-0.372743	-0.356769	-0.339833	-0.328404	0.321047	0.40086	-0.406304	0.425752	0.189399	-0.340483	0.362287	0.433891	0.331788	0.34409	0.397638	-0.414232	0.418298	0.344559	0.311205	-0.430023	0.351435	-0.358149
-0.455532	0.457167	0.359204	0.458262	-0.389461	-0.440015	-0.412983	0.342918	-0.371952	-0.471157	-0.38993	-0.473742	-0.384343	-0.4758	0.465038	0.404162	-0.364286	0.342046	0.434486	-0.109234	0.403643	0.418659	0.400858	0.475082	0.37187	-0.422876	0.424214	0.36151	0.439091	-0.421493	0.298809	-0.395229
-0.493353	0.290374	0.438045	0.381681	-0.496833	-0.470525	-0.361539	0.463972	-0.456505	-0.161	-0.508896	-0.51674	-0.466454	-0.49212	0.417983	0.439932	-0.515437	0.414411	0.497053	-0.420241	0.440483	0.419507	0.474103	0.441913	0.414579	-0.49397	0.436008	0.352174	0.540183	-0.456977	0.337952	-0.455367
-0.425118	0.461549	0.410139	0.36789	-0.465577	-0.446808	-0.454221	0.449315	-0.464615	-0.276176	-0.460446	-0.404035	-0.505241	-0.466811	0.403186	0.458096	-0.401738	0.44053	0.464238	-0.422951	0.416167	0.456155	0.381091	0.445157	0.430851	-0.423187	0.49593	0.465147	0.498073	-0.490078	0.410469	-0.418918
-0.390953	0.383776	0.329603	0.410751	-0.362813	-0.368774	-0.36975	0.38127	-0.454765	-0.349072	-0.39339	-0.370611	-0.401908	-0.361216	0.401856	0.441866	-0.39015	0.435526	0.1778	-0.472933	0.345377	0.450063	0.451669	0.345307	0.363226	-0.454336	0.373821	0.431502	0.399559	-0.401108	0.512958	-0.428269
-0.440079	0.430997	0.407303	0.445608	-0.45444	-0.411397	-0.446243	0.432113	-0.469509	-0.409313	-0.443868	-0.408389	-0.430774	-0.446763	0.420494	0.444723	-0.436285	0.393269	0.434707	-0.354865	0.426603	0.475564	0.505225	0.426717	0.476962	-0.428692	0.476039	0.404255	0.468924	-0.414738	0.448619	-0.421419
-0.389351	0.346496	0.390488	0.372966	-0.388536	-0.428261	-0.371937	0.376807	-0.431139	-0.432873	-0.352178	-0.419983	-0.387825	-0.43228	0.378088	0.339502	-0.389591	0.4357	0.393919	-0.400073	0.3661	0.416511	0.392192	0.36762	0.33217	-0.315005	0.360386	0.379327	0.326254	-0.385411	0.419289	-0.385689
-0.436221	0.403166	0.348522	0.425158	-0.37306	-0.362938	-0.418802	0.357161	-0.339421	-0.427832	-0.344378	-0.409733	-0.392538	-0.360084	0.386711	0.419596	-0.353149	0.370272	0.295443	-0.462462	0.35671	0.330693	0.348146	0.43778	0.388636	-0.389977	0.443874	0.255165	0.426204	-0.398803	0.366489	-0.384036
-0.359476	0.43654	0.385168	0.431747	-0.513772	-0.365749	-0.43668	0.387844	-0.419253	-0.477665	-0.431131	-0.385009	-0.461973	-0.387449	0.407975	0.378132	-0.426428	0.426369	0.417487	-0.423114	0.483033	0.446817	0.469927	0.375677	0.406177	-0.353394	0.462922	0.388375	0.481317	-0.441099	0.378509	-0.431717
-0.38278	0.466845	0.499553	0.477894	-0.413728	-0.453478	-0.492696	0.45451	-0.444806	-0.438334	-0.435793	-0.456953	-0.417153	-0.429375	0.464546	0.411739	-0.455476	0.40807	0.304207	-0.465523	0.446102	0.463883	0.455503	0.404608	0.389702	-0.452312	0.419751	0.454858	0.423669	-0.456171	0.452535	-0.428552
-0.3523	0.438827	0.340916	0.288607	-0.328064	-0.358157	-0.426714	0.20677	-0.232077	-0.502927	-0.238483	-0.358419	-0.367921	-0.378095	0.327543	0.354373	-0.34926	0.458206	0.401937	-0.364082	0.306166	0.321572	0.215585	0.381689	0.207675	-0.382455	0.363174	0.364727	0.234272	-0.263545	0.208171	-0.323871
-0.299855	0.290862	0.25794	0.215604	-0.29791	-0.230197	-0.301427	0.241672	-0.297874	-0.394139	-0.389605	-0.245432	-0.350031	-0.341005	0.277939	0.272739	-0.373014	0.349352	0.185246	-0.29855	0.269308	0.285926	0.345358	0.3721	0.386687	-0.272161	0.348155	0.377827	0.194176	-0.293107	0.259565	-0.298439
-0.395802	0.489253	0.44425	0.352039	-0.29478	-0.344008	-0.462724	0.464388	-0.429907	-0.425954	-0.269429	-0.338122	-0.428437	-0.393217	0.386364	0.414971	-0.37526	0.414942	0.158217	-0.455302	0.358447	0.407837	0.432565	0.445413	0.355388	-0.478134	0.447148	0.441565	0.385643	-0.461104	0.393139	-0.357536
-0.396561	0.426421	0.474367	0.4393	-0.351747	-0.488051	-0.457604	0.481082	-0.412618	-0.400164	-0.422706	-0.456113	-0.421356	-0.405554	0.470406	0.405677	-0.508406	0.425512	0.335207	-0.453107	0.497445	0.479662	0.440172	0.416586	0.462929	-0.493849	0.496721	0.334657	0.416067	-0.408406	0.45691	-0.439948
-0.452804	0.374746	0.375503	0.403308	-0.439379	-0.420002	-0.318675	0.364123	-0.41696	-0.422952	-0.395806	-0.344329	-0.44585	-0.403389	0.368708	0.404422	-0.426532	0.450151	0.46946	-0.473491	0.400667	0.461037	0.399139	0.44606	0.326808	-0.462777	0.455749	0.296856	0.448694	-0.441303	0.341929	-0.451196
-0.494914	0.346958	0.3153	0.539907	-0.182929	-0.439928	-0.392485	0.375024	-0.40219	-0.248698	-0.442084	-0.547125	-0.521382	-0.447424	0.358796	0.443083	-0.444225	0.150289	0.607583	-0.518929	0.557448	0.32468	0.538283	0.455038	0.325324	-0.426915	0.44413	0.416191	0.412254	-0.475897	0.522335	-0.536768
-0.384887	0.385929	0.389699	0.405129	-0.365081	-0.4044	-0.395601	0.353391	-0.512307	-0.475121	-0.400488	-0.440597	-0.434655	-0.447736	0.46043	0.444752	-0.438755	0.374007	0.483413	-0.381723	0.452736	0.49974	0.487462	0.380377	0.452219	-0.376713	0.476916	0.431663	0.419497	-0.484506	0.492537	-0.438989
-0.318735	0.379545	0.33622	0.334263	-0.373409	-0.373	-0.342819	0.411364	-0.344629	-0.381664	-0.362194	-0.346937	-0.394487	-0.311145	0.380194	0.353048	-0.368059	0.46875	0.27774	-0.342956	0.360813	0.374561	0.440235	0.393249	0.400242	-0.315523	0.346814	0.376122	0.38571	-0.427297	0.348073	-0.325174
-0.432251	0.351502	0.381838	0.453775	-0.424654	-0.378676	-0.262615	0.339812	-0.372854	-0.260421	-0.393901	-0.404885	-0.360144	-0.476806	0.383146	0.323297	-0.419144	0.406917	0.3524	-0.314498	0.470116	0.409158	0.334032	0.424534	0.392013	-0.353797	0.416433	0.365376	0.329426	-0.369472	0.356512	-0.457989
-0.386981	0.374375	0.40066	0.431413	-0.493981	-0.470607	-0.460997	0.466103	-0.394121	-0.322409	-0.352815	-0.43923	-0.449691	-0.418548	0.376755	0.387558	-0.40343	0.368288	0.48175	-0.373423	0.452307	0.467558	0.324553	0.45205	0.39124	-0.444691	0.475239	0.506973	0.374565	-0.47123	0.456558	-0.413963
-0.417547	0.322629	0.396454	0.322892	-0.357068	-0.387486	-0.453681	0.418328	-0.406879	-0.244761	-0.363864	-0.350829	-0.446373	-0.390647	0.424359	0.362813	-0.416171	0.397923	0.339588	-0.44506	0.349405	0.268557	0.382583	0.440802	0.272087	-0.401348	0.403556	0.305469	0.347583	-0.425524	0.360294	-0.441106
-0.328772	0.37829	0.367153	0.317018	-0.336254	-0.265977	-0.324046	0.382788	-0.288738	-0.379394	-0.382667	-0.30832	-0.348347	-0.375513	0.317532	0.330232	-0.330114	0.330259	0.376185	-0.388734	0.298908	0.339859	0.416393	0.299659	0.228385	-0.426126	0.361223	0.409679	0.399264	-0.333581	0.446136	-0.372091
-0.270073	0.37785	0.371078	0.282137	-0.370107	-0.351416	-0.337997	0.282968	-0.315538	-0.305498	-0.351927	-0.337917	-0.342311	-0.299824	0.345096	0.299152	-0.351644	0.382247	0.459147	-0.327694	0.457386	0.309771	0.325285	0.414477	0.313433	-0.321667	0.379683	0.39867	0.341328	-0.307071	0.418696	-0.339296
-0.373857	0.470843	0.445377	0.378359	-0.411461	-0.423303	-0.462682	0.466397	-0.431813	-0.342128	-0.432911	-0.490793	-0.472011	-0.412005	0.426448	0.456003	-0.500754	0.312273	0.46284	-0.32046	0.454114	0.4019	0.505444	0.471377	0.488326	-0.427269	0.483675	0.342233	0.372156	-0.437213	0.489328	-0.453876
-0.458581	0.451273	0.420126	0.388557	-0.442595	-0.375673	-0.351446	0.507857	-0.370973	-0.377518	-0.5116	-0.457992	-0.364732	-0.445878	0.434274	0.332186	-0.373586	0.480183	0.628003	-0.442609	0.410413	0.493688	0.432502	0.469324	0.406463	-0.406903	0.431982	0.511331	0.467127	-0.417338	0.428168	-0.388313
-0.403589	0.430834	0.441686	0.450572	-0.355155	-0.404736	-0.44598	0.433098	-0.433211	-0.28391	-0.412707	-0.437017	-0.437149	-0.440033	0.369508	0.46384	-0.461487	0.380931	0.466425	-0.36962	0.40528	0.353226	0.440607	0.368835	0.380281	-0.425303	0.42543	0.406152	0.464516	-0.372263	0.460543	-0.420176
-0.387861	0.37625	0.447028	0.423102	-0.357345	-0.432662	-0.4547	0.470083	-0.470695	-0.319237	-0.454791	-0.460461	-0.472776	-0.404945	0.394484	0.421851	-0.469204	0.378014	0.398995	-0.342392	0.466173	0.383654	0.450747	0.407965	0.425828	-0.535181	0.473678	0.345268	0.417885	-0.421632	0.380913	-0.432233
-0.477855	0.398961	0.468319	0.364503	-0.359814	-0.422119	-0.406139	0.406608	-0.380107	-0.442768	-0.439415	-0.363426	-0.419202	-0.441676	0.384497	0.419576	-0.469188	0.461511	0.140994	-0.556595	0.356538	0.275795	0.377007	0.416473	0.458177	-0.414563	0.433565	0.369954	0.428444	-0.363921	0.469221	-0.458912
-0.411668	0.454182	0.415816	0.418704	-0.418599	-0.44252	-0.490529	0.423424	-0.475694	-0.466529	-0.423395	-0.397457	-0.468508	-0.484232	0.403195	0.47628	-0.393982	0.440517	0.243592	-0.353392	0.462716	0.491616	0.475176	0.399463	0.428651	-0.379349	0.43672	0.35909	0.426019	-0.453321	0.354622	-0.430752
-0.191745	0.426015	0.306724	0.290324	-0.283168	-0.224473	-0.322375	0.227871	-0.353856	-0.519913	-0.359238	-0.277823	-0.290873	-0.270031	0.292258	0.36874	-0.309302	0.357635	0.561166	-0.0998778	0.384	0.266567	0.316907	0.386682	0.311455	-0.250409	0.278482	0.368481	0.355464	-0.281016	0.201759	-0.369029
-0.18576	0.381287	0.492868	0.47104	-0.555433	-0.334608	-0.48918	0.503571	-0.506132	-0.596273	-0.243214	-0.451166	-0.479887	-0.395493	0.221836	0.378596	-0.348497	0.499393	0.0578474	-0.629764	0.345828	0.418866	0.187061	0.408844	0.451723	-0.450461	0.541201	0.161793	0.461187	-0.552615	0.312873	-0.311853
-0.466706	0.453116	0.435051	0.400421	-0.414413	-0.47973	-0.401603	0.452997	-0.402505	-0.545774	-0.463227	-0.43656	-0.456086	-0.334858	0.444776	0.495219	-0.359063	0.427624	0.330118	-0.3682	0.390719	0.508262	0.465131	0.407142	0.511595	-0.44369	0.501866	0.57315	0.460149	-0.361493	0.240221	-0.415027
-0.482735	0.559599	0.400284	0.469431	-0.554693	-0.478945	-0.253205	0.451668	-0.251778	-0.206412	-0.429702	-0.557049	-0.409157	-0.500495	0.370021	0.316562	-0.453797	0.46082	-0.0548709	-0.140457	0.513919	0.448631	0.405052	0.475002	0.350806	-0.341523	0.529775	0.342119	0.426597	-0.448177	0.595483	-0.488713
-0.386616	0.400063	0.416558	0.459638	-0.358264	-0.398894	-0.399291	0.480681	-0.422214	-0.383202	-0.378475	-0.407897	-0.43911	-0.415627	0.400929	0.46704	-0.411556	0.345841	0.205767	-0.471926	0.440126	0.407083	0.421216	0.37368	0.445809	-0.435564	0.456332	0.33933	0.346595	-0.374258	0.337762	-0.439401
-0.328716	0.26388	0.353188	0.301229	-0.138973	-0.342646	-0.301318	0.223988	-0.305927	-0.260725	-0.328028	-0.365051	-0.334308	-0.322938	0.316488	0.218008	-0.242189	0.348621	0.430378	-0.323446	0.305454	0.358427	0.194455	0.34902	0.258388	-0.0843749	0.263562	0.281925	0.314321	-0.303419	0.10385	-0.301137
-0.320376	0.439117	0.313704	0.400694	-0.27841	-0.309943	-0.355513	0.298548	-0.392446	-0.377066	-0.340703	-0.414497	-0.391757	-0.371372	0.401014	0.359876	-0.402243	0.408649	0.361479	-0.301616	0.319707	0.287726	0.309021	0.451749	0.451748	-0.313112	0.360289	0.350634	0.343398	-0.392543	0.408367	-0.447941
-0.366383	0.42639	0.392439	0.344218	-0.397569	-0.406257	-0.349716	0.324907	-0.29508	-0.533461	-0.406262	-0.396907	-0.351026	-0.325193	0.407142	0.396313	-0.28481	0.421068	0.383709	-0.164925	0.443293	0.505512	0.393808	0.367906	0.403527	-0.378283	0.448857	0.391721	0.374401	-0.412425	0.315992	-0.406915
-0.408546	0.400789	0.437591	0.399453	-0.439814	-0.338268	-0.429881	0.41492	-0.391751	-0.328711	-0.333103	-0.374314	-0.413662	-0.335149	0.459162	0.362041	-0.394976	0.386437	0.363636	-0.452905	0.397986	0.367152	0.289568	0.440379	0.346102	-0.404525	0.40253	0.376388	0.371154	-0.44449	0.376808	-0.415082
-0.360989	0.386989	0.432465	0.383945	-0.320555	-0.474286	-0.452396	0.433767	-0.43343	-0.156169	-0.463514	-0.408781	-0.486932	-0.453614	0.407564	0.401745	-0.459678	0.429059	0.323665	-0.367939	0.375967	0.351984	0.251844	0.439175	0.407696	-0.34968	0.44156	0.447527	0.434165	-0.485974	0.376493	-0.44545
-0.30533	0.434789	0.411225	0.386414	-0.335591	-0.344248	-0.449091	0.415203	-0.364185	-0.329353	-0.412452	-0.334791	-0.385502	-0.430854	0.397644	0.447465	-0.395131	0.427425	0.400288	-0.389673	0.453477	0.340973	0.375238	0.445274	0.434521	-0.382153	0.392811	0.402633	0.390072	-0.470121	0.441422	-0.421575
-0.508395	0.278515	0.357913	0.434681	-0.404567	-0.470632	-0.233004	0.481752	-0.506718	-0.449471	-0.30484	-0.470379	-0.285703	-0.550189	0.342864	0.545883	-0.312361	0.293877	-0.103473	-0.619261	0.349089	0.253808	0.562689	0.215621	0.579004	-0.330151	0.410051	0.15107	0.414933	-0.33261	0.329592	-0.303419
-0.259235	0.358153	0.247572	0.339769	-0.2344	-0.233581	-0.271429	0.276294	-0.327599	-0.435101	-0.296716	-0.330254	-0.329986	-0.274174	0.339609	0.262162	-0.218141	0.421186	0.358883	-0.291346	0.148272	0.194132	0.162441	0.24311	0.341914	-0.271031	0.33001	0.190259	0.29207	-0.222158	0.387585	-0.285858
-0.329373	0.4599	0.394571	0.396862	-0.37973	-0.402433	-0.332463	0.402983	-0.402312	-0.265045	-0.365402	-0.415776	-0.384225	-0.361057	0.345595	0.329286	-0.442788	0.490413	0.480233	-0.383001	0.337843	0.412829	0.449337	0.331795	0.365213	-0.380851	0.421086	0.514243	0.348449	-0.400019	0.377744	-0.404976
-0.363483	0.463993	0.488135	0.427275	-0.487992	-0.438089	-0.466611	0.411073	-0.469257	-0.413575	-0.363518	-0.40635	-0.464514	-0.377776	0.432103	0.398976	-0.45489	0.393048	0.410217	-0.485098	0.42148	0.476541	0.327547	0.432609	0.383336	-0.403933	0.419936	0.39857	0.450498	-0.410939	0.417004	-0.480666
-0.365236	0.432657	0.439626	0.419721	-0.50563	-0.472876	-0.466244	0.374846	-0.479134	-0.518414	-0.504206	-0.378556	-0.461274	-0.483208	0.444989	0.449648	-0.41875	0.287274	0.296717	-0.377233	0.466808	0.401799	0.424087	0.42408	0.478065	-0.453813	0.444155	0.399702	0.432755	-0.407629	0.470724	-0.441808
-0.257447	0.30209	0.337896	0.431161	-0.300116	-0.480334	-0.417515	0.458878	-0.397584	-0.494698	-0.367078	-0.399546	-0.277431	-0.239288	0.384949	0.407088	-0.326728	0.579984	0.440667	-0.460232	0.278456	0.379218	0.277664	0.391132	0.262548	-0.305909	0.447979	0.0140462	0.459867	-0.327385	0.520982	-0.359806
-0.352718	0.272467	0.363556	0.410774	-0.327472	-0.347968	-0.312409	0.259348	-0.344078	-0.344198	-0.3716	-0.421305	-0.380076	-0.367281	0.341947	0.321945	-0.446681	0.249921	0.359825	-0.305951	0.374018	0.458613	0.379142	0.303442	0.438838	-0.388081	0.392072	0.338903	0.465015	-0.366591	0.321993	-0.356954
-0.345359	0.456661	0.39466	0.474091	-0.42114	-0.414891	-0.48601	0.421815	-0.492572	-0.271892	-0.478314	-0.399629	-0.498122	-0.459918	0.495291	0.435709	-0.484612	0.304147	0.402056	-0.356768	0.471954	0.347719	0.392042	0.458689	0.481494	-0.460354	0.438035	0.424362	0.467138	-0.401931	0.441494	-0.412258
-0.208446	0.350275	0.451953	0.454583	-0.408621	-0.372594	-0.437126	0.242245	-0.511099	-0.25577	-0.51456	-0.520971	-0.479213	-0.477969	0.378066	0.540301	-0.522169	0.502773	0.112532	-0.316203	0.346349	0.509548	0.510049	0.484079	0.50212	-0.414077	0.492671	0.205744	0.407789	-0.446126	0.395111	-0.474837
-0.387513	0.401853	0.413079	0.399142	-0.452822	-0.361361	-0.264084	0.453892	-0.351861	-0.252223	-0.413627	-0.43	-0.394537	-0.437274	0.365276	0.380492	-0.428089	0.524878	0.365435	-0.462044	0.47502	0.447278	0.498807	0.456254	0.425133	-0.389498	0.421647	0.354155	0.417121	-0.390392	0.437845	-0.45463
-0.244283	0.359984	0.355658	0.398035	-0.34848	-0.434721	-0.41672	0.318482	-0.356561	-0.289041	-0.373425	-0.45131	-0.366017	-0.45416	0.446501	0.335133	-0.359873	0.359071	0.355535	-0.296404	0.317708	0.313282	0.432613	0.380712	0.352068	-0.316591	0.448879	0.41104	0.399854	-0.422423	0.456291	-0.360176
-0.415128	0.452536	0.371155	0.449096	-0.443668	-0.486291	-0.475059	0.38484	-0.443367	-0.380543	-0.40147	-0.394543	-0.44543	-0.459169	0.403989	0.479725	-0.415368	0.399801	0.267336	-0.356006	0.461066	0.430348	0.338128	0.408541	0.453594	-0.408196	0.478164	0.395695	0.398724	-0.449591	0.447753	-0.473662
-0.336141	0.468093	0.444716	0.407412	-0.463401	-0.473803	-0.383901	0.406639	-0.445025	-0.417727	-0.430812	-0.476421	-0.403307	-0.458773	0.486337	0.463026	-0.444807	0.444256	0.433683	-0.346694	0.476324	0.480098	0.400784	0.506626	0.434749	-0.483974	0.480892	0.433899	0.430845	-0.43373	0.514979	-0.456656
-0.465944	0.328164	0.417051	0.360989	-0.312017	-0.440697	-0.384781	0.393482	-0.450541	-0.363926	-0.472204	-0.311127	-0.342999	-0.449261	0.416656	0.414668	-0.433462	0.492788	0.270844	-0.297104	0.422628	0.384469	0.44302	0.3794	0.429731	-0.449334	0.428191	0.427152	0.448577	-0.416333	0.437426	-0.484818
-0.279554	0.265711	0.267266	0.260711	-0.279882	-0.339617	-0.320004	0.327503	-0.274641	-0.224783	-0.245915	-0.28969	-0.320479	-0.205747	0.320096	0.357123	-0.354802	0.304244	0.224725	-0.29817	0.303057	0.33517	0.304356	0.363851	0.263987	-0.306922	0.347524	0.385223	0.247966	-0.319678	0.349434	-0.341707
-0.318115	0.397021	0.354674	0.342341	-0.378611	-0.316246	-0.410834	0.33145	-0.31153	-0.329602	-0.412677	-0.408239	-0.422493	-0.387703	0.368763	0.319402	-0.420125	0.352492	0.491973	-0.253251	0.311934	0.353016	0.389642	0.425213	0.361394	-0.34351	0.365554	0.289949	0.443817	-0.39816	0.427334	-0.446767
-0.343044	0.422087	0.425657	0.423674	-0.356121	-0.344164	-0.430293	0.380696	-0.449998	-0.367625	-0.361054	-0.360899	-0.447001	-0.489594	0.39471	0.373139	-0.476987	0.396608	0.425364	-0.377238	0.415697	0.425023	0.460094	0.452059	0.469809	-0.399695	0.440024	0.360936	0.435558	-0.411843	0.454136	-0.352051
-0.249945	0.266017	0.395555	0.386372	-0.327969	-0.306139	-0.247587	0.321478	-0.368323	-0.480527	-0.351205	-0.376334	-0.259949	-0.296329	0.3694	0.412027	-0.3112	0.421314	0.500601	-0.197118	0.450722	0.276368	0.288197	0.320196	0.392322	-0.359893	0.262866	0.283713	0.307872	-0.406646	0.46592	-0.309128
-0.418277	0.45099	0.442379	0.429273	-0.4757	-0.411255	-0.438064	0.424536	-0.422959	-0.32774	-0.470309	-0.427017	-0.498998	-0.488717	0.469437	0.454913	-0.492775	0.325864	0.530643	-0.322538	0.424717	0.463013	0.523302	0.450986	0.380798	-0.48286	0.435421	0.453695	0.452443	-0.428021	0.450278	-0.463196
